{"learner":{"attributes":{"scikit_learn":"{\"_estimator_type\": \"regressor\"}"},"feature_names":["u_hist","u_adv","u_nat","u_rel","l_hist","l_adv","l_nat","l_rel","l_outdoor","l_lat","l_lng","c_raining"],"feature_types":["float","float","float","float","float","float","float","float","int","float","float","int"],"gradient_booster":{"model":{"cats":{"enc":[],"feature_segments":[],"sorted_idx":[]},"gbtree_model_param":{"num_parallel_tree":"1","num_trees":"300"},"iteration_indptr":[0,1,2,3,4,5,6,7,8,9,10,11,12,13,14,15,16,17,18,19,20,21,22,23,24,25,26,27,28,29,30,31,32,33,34,35,36,37,38,39,40,41,42,43,44,45,46,47,48,49,50,51,52,53,54,55,56,57,58,59,60,61,62,63,64,65,66,67,68,69,70,71,72,73,74,75,76,77,78,79,80,81,82,83,84,85,86,87,88,89,90,91,92,93,94,95,96,97,98,99,100,101,102,103,104,105,106,107,108,109,110,111,112,113,114,115,116,117,118,119,120,121,122,123,124,125,126,127,128,129,130,131,132,133,134,135,136,137,138,139,140,141,142,143,144,145,146,147,148,149,150,151,152,153,154,155,156,157,158,159,160,161,162,163,164,165,166,167,168,169,170,171,172,173,174,175,176,177,178,179,180,181,182,183,184,185,186,187,188,189,190,191,192,193,194,195,196,197,198,199,200,201,202,203,204,205,206,207,208,209,210,211,212,213,214,215,216,217,218,219,220,221,222,223,224,225,226,227,228,229,230,231,232,233,234,235,236,237,238,239,240,241,242,243,244,245,246,247,248,249,250,251,252,253,254,255,256,257,258,259,260,261,262,263,264,265,266,267,268,269,270,271,272,273,274,275,276,277,278,279,280,281,282,283,284,285,286,287,288,289,290,291,292,293,294,295,296,297,298,299,300],"tree_info":[0,0,0,0,0,0,0,0,0,0,0,0,0,0,0,0,0,0,0,0,0,0,0,0,0,0,0,0,0,0,0,0,0,0,0,0,0,0,0,0,0,0,0,0,0,0,0,0,0,0,0,0,0,0,0,0,0,0,0,0,0,0,0,0,0,0,0,0,0,0,0,0,0,0,0,0,0,0,0,0,0,0,0,0,0,0,0,0,0,0,0,0,0,0,0,0,0,0,0,0,0,0,0,0,0,0,0,0,0,0,0,0,0,0,0,0,0,0,0,0,0,0,0,0,0,0,0,0,0,0,0,0,0,0,0,0,0,0,0,0,0,0,0,0,0,0,0,0,0,0,0,0,0,0,0,0,0,0,0,0,0,0,0,0,0,0,0,0,0,0,0,0,0,0,0,0,0,0,0,0,0,0,0,0,0,0,0,0,0,0,0,0,0,0,0,0,0,0,0,0,0,0,0,0,0,0,0,0,0,0,0,0,0,0,0,0,0,0,0,0,0,0,0,0,0,0,0,0,0,0,0,0,0,0,0,0,0,0,0,0,0,0,0,0,0,0,0,0,0,0,0,0,0,0,0,0,0,0,0,0,0,0,0,0,0,0,0,0,0,0,0,0,0,0,0,0,0,0,0,0,0,0,0,0,0,0,0,0,0,0,0,0,0,0,0,0,0,0,0,0],"trees":[{"base_weights":[3.8946158E-4,6.2592316E-1,-2.5325546E0,4.3987587E-1,1.5874922E0,7.602966E-2,-3.0560045E0,2.1643418E-1,1.0907192E0,3.2490373E-1,3.7993174E0,-2.5125E-1,2.1626604E0,-3.151959E0,-2.5293047E0,6.9473284E-1,-1.114366E-1,7.2482236E-2,2.2039242E0,-6.782023E-1,1.1823294E0,2.3729022E0,4.373869E0,-7.3484397E-1,6.8640935E-1,8.8375556E-1,3.5810695E0,-3.1642313E0,-2.3551562E0,-3.151539E0,-5.26973E-1,1.3813837E-1,9.0707546E-1,-3.9498222E-1,2.917182E-1,-2.623152E-1,6.2495553E-1,1.6709833E0,2.9629223E0,-9.423406E-1,2.5737712E-2,5.558659E-1,1.4941423E0,9.0736E-2,1.2898587E-1,3.2268624E0,2.4480405E-1,-1.002994E0,4.871264E-2,2.4709928E-1,2.5010607E0,-3.2553334E-2,7.505303E-2,2.0382963E-1,7.854375E-2,-1.6038834E-1,-2.866E0,-1.4844653E-1,-2.0553332E-2,-1.6356996E-1,-1.24807954E-1,-1.0315263E0,5.3157806E-3,-4.5627272E-1,9.4260746E-1,1.1690133E0,6.0646677E-1,-9.3847364E-1,-5.4329555E-2,-1.0295227E-1,9.717413E-1,-3.9471337E-1,2.5720957E-1,5.6356466E-1,1.4410769E0,1.3606393E0,1.8803059E0,1.11639276E-1,4.3663793E0,-1.0815086E0,-1.8349358E-1,4.54963E-2,-1.24893084E-1,2.9713753E-1,7.5989234E-1,1.2231319E0,1.7801646E0,1.2705699E-1,2.2386508E-1,-1.5494559E0,-6.0334694E-1,3.729375E-2,-6.0416672E-2,-7.629033E-2,4.1113727E-2,1.4205104E-1,5.979375E-2,-3.034531E0,-3.5897917E-1,-1.4281539E0,-7.378573E-3,-1.4320238E-1,1.754861E-2,-1.1923475E0,7.631221E-1,-6.5399283E-1,2.548686E0,7.640894E-1,1.8662505E0,3.694389E-1,1.5680748E0,-1.1877675E0,-3.4798133E-1,-2.0519753E-1,3.815367E-1,-2.6591325E-1,9.945948E-1,8.135094E-1,2.152461E0,-4.8218548E-1,7.263684E-1,-2.7886325E-1,9.946964E-1,3.0653632E-1,7.473821E-1,4.8505E-1,1.7354374E-1,1.1900698E0,1.6225349E0,8.520594E-2,1.0905731E-1,1.1944667E-1,2.2284427E-1,-1.3881398E0,-8.533479E-1,-7.0507693E-1,3.1394047E-1,1.4484374E-1,-2.3517983E-1,6.394049E-2,4.070494E-1,4.556092E-1,5.8155417E-2,4.1722223E-2,1.3208686E0,9.711086E-2,6.813302E-2,-8.2040325E-2,-2.270625E-2,1.3214816E-1,-7.500813E-1,-2.5419608E-1,2.7504998E-1,5.4967936E-2,-3.1618055E-2,-1.5770636E-1,-1.0287441E-1,-3.895625E-2,2.446666E-3,-1.00235716E-1,-3.237857E-2,-2.1456247E-2,-2.6212128E-2,-7.152225E-2,9.83287E-3,1.818931E-2,9.184474E-2,-6.1533332E-2,-2.3016822E-2,8.993496E-2,1.7605633E-1,7.5628604E-3,1.173951E-1,-3.2314762E-2,1.2616476E-1,-2.1778082E-2,3.0292917E-2,5.597167E-3,2.0122874E-1,-7.6775365E-2,-3.3242196E-2,-3.56041E-2,5.6918273E-3,-1.1638699E-2,6.892605E-2,8.2465785E-4,3.4172606E-2,-3.0936984E-2,5.436974E-3,1.553473E-3,6.0971987E-2,3.3569753E-2,5.9811473E-2,7.238681E-2,1.2421316E-1,-3.0966876E-2,-9.828481E-3,-5.802986E-2,1.7330104E-1,-2.7485764E-2,7.242188E-3,3.6960315E-2,7.705104E-2,3.9625596E-2,9.857436E-3,2.8748652E-2,5.1441457E-2,3.4466672E-3,3.7548613E-2,4.6655416E-2,6.309364E-2,8.468838E-2,4.504861E-2,-7.945676E-2,-4.7344584E-2,-7.745139E-2,-3.931578E-2,-3.92475E-2,-1.645625E-2,-1.6642859E-3,2.8926043E-2,-6.725926E-3,2.2051042E-2,-2.0344583E-2,-2.1026328E-3,-1.0553334E-2,9.752502E-3,1.6782954E-2,3.0048614E-2,9.446668E-3,2.4536E-2,5.9272874E-2,7.934128E-2,-9.553333E-3,2.1446666E-2,-4.1495834E-2,9.79375E-3,-2.2196528E-2,8.381945E-3,4.979375E-2,-8.807145E-3,-1.4118056E-2,7.4365074E-3,-9.553335E-3,4.7642863E-3],"categories":[],"categories_nodes":[],"categories_segments":[],"categories_sizes":[],"default_left":[0,0,0,0,0,0,0,0,0,0,0,0,0,0,0,0,0,0,0,0,0,0,0,0,0,0,0,0,0,0,0,0,0,0,0,0,0,0,0,0,0,0,0,0,0,0,0,0,0,0,0,0,0,0,0,0,0,0,0,0,0,0,0,0,0,0,0,0,0,0,0,0,0,0,0,0,0,0,0,0,0,0,0,0,0,0,0,0,0,0,0,0,0,0,0,0,0,0,0,0,0,0,0,0,0,0,0,0,0,0,0,0,0,0,0,0,0,0,0,0,0,0,0,0,0,0,0,0,0,0,0,0,0,0,0,0,0,0,0,0,0,0,0,0,0,0,0,0,0,0,0,0,0,0,0,0,0,0,0,0,0,0,0,0,0,0,0,0,0,0,0,0,0,0,0,0,0,0,0,0,0,0,0,0,0,0,0,0,0,0,0,0,0,0,0,0,0,0,0,0,0,0,0,0,0,0,0,0,0,0,0,0,0,0,0,0,0,0,0,0,0,0,0,0,0,0,0,0,0,0,0,0,0,0,0,0,0,0,0,0,0,0,0,0,0],"id":0,"left_children":[1,3,5,7,9,11,13,15,17,19,21,23,25,27,29,31,33,35,37,39,41,43,45,47,49,51,53,55,57,59,61,63,65,67,69,71,73,75,77,79,81,83,85,-1,-1,87,-1,89,91,93,95,-1,-1,-1,-1,-1,97,-1,-1,-1,-1,99,101,103,105,107,109,111,113,115,117,119,121,123,125,127,129,-1,131,133,135,-1,137,139,141,143,145,-1,-1,147,149,-1,151,153,-1,-1,-1,155,157,159,-1,161,-1,163,165,167,169,171,173,175,177,179,181,183,185,187,189,191,193,195,197,199,201,203,205,207,-1,209,211,-1,-1,-1,-1,213,215,217,219,221,223,225,227,229,-1,-1,231,-1,-1,-1,-1,233,235,237,239,241,-1,-1,-1,-1,-1,-1,-1,-1,243,-1,-1,-1,-1,-1,-1,-1,-1,-1,-1,-1,-1,-1,-1,-1,-1,-1,-1,-1,-1,-1,-1,-1,-1,-1,-1,-1,-1,-1,-1,-1,-1,-1,-1,-1,-1,-1,-1,-1,-1,-1,-1,-1,-1,-1,-1,-1,-1,-1,-1,-1,-1,-1,-1,-1,-1,-1,-1,-1,-1,-1,-1,-1,-1,-1,-1,-1,-1,-1,-1,-1,-1,-1,-1,-1,-1,-1,-1,-1,-1,-1,-1],"loss_changes":[9.096281E3,8.229448E2,1.5527646E3,5.60961E2,2.0820637E3,1.309795E2,3.988867E1,4.507785E2,1.1174779E3,4.102042E2,2.1171924E2,7.5776505E1,4.399948E1,3.408203E-1,1.8647314E2,1.380373E2,1.9513281E2,9.560673E1,1.8556909E2,4.093051E1,4.9371643E1,4.553772E0,9.920532E1,2.3161034E1,4.4822075E1,1.5189091E1,5.549347E0,9.5947266E-1,1.7871292E1,8.676758E-1,9.942501E0,1.5536215E2,6.590582E1,1.8546112E2,1.893115E2,2.2250008E1,8.957832E0,1.5565918E1,1.88021E2,1.66987E1,8.237989E0,4.3667145E0,1.1077698E1,0E0,0E0,4.2642273E1,0E0,1.6973274E1,2.2514076E0,8.804998E0,1.4833221E0,0E0,0E0,0E0,0E0,0E0,4.4964355E1,0E0,0E0,0E0,0E0,6.4506607E0,1.0256487E0,1.6875473E2,3.5553543E2,1.2590399E2,8.9680145E1,5.6408234E1,4.065114E1,8.021371E1,4.66373E1,2.555254E1,2.6370262E1,8.416973E0,2.354349E1,3.2509613E0,4.975769E0,0E0,9.8583984E-1,8.260208E0,6.967139E0,0E0,1.610729E0,9.9921846E-1,5.3592854E0,2.3547974E0,2.8336792E0,0E0,0E0,2.6568832E0,5.3873196E0,0E0,1.7600863E0,2.2974148E0,0E0,0E0,0E0,5.4292603E0,1.4091871E0,4.552492E0,0E0,4.570538E-1,0E0,3.8975357E1,2.9776272E1,7.250841E0,4.3989502E1,2.7821036E2,2.7402173E2,6.0975258E1,2.7855444E2,4.8258118E1,1.9586252E1,2.0366936E1,1.751248E1,5.162036E1,1.2527447E1,1.1706558E1,3.4183197E0,9.240559E0,1.0224562E2,4.555337E0,2.7691212E0,3.9902143E0,4.551998E0,1.0547795E0,0E0,1.8787384E-1,6.8411255E-1,0E0,0E0,0E0,0E0,3.4618301E0,2.512619E0,1.3202286E-1,1.3054258E0,1.3831766E0,1.2430537E0,5.4595345E-1,1.7207193E-1,1.7881918E-1,0E0,0E0,6.758499E-1,0E0,0E0,0E0,0E0,9.452831E-1,3.2589092E0,1.4350429E0,3.4277272E0,8.643422E-1,0E0,0E0,0E0,0E0,0E0,0E0,0E0,0E0,2.3853014E-1,0E0,0E0,0E0,0E0,0E0,0E0,0E0,0E0,0E0,0E0,0E0,0E0,0E0,0E0,0E0,0E0,0E0,0E0,0E0,0E0,0E0,0E0,0E0,0E0,0E0,0E0,0E0,0E0,0E0,0E0,0E0,0E0,0E0,0E0,0E0,0E0,0E0,0E0,0E0,0E0,0E0,0E0,0E0,0E0,0E0,0E0,0E0,0E0,0E0,0E0,0E0,0E0,0E0,0E0,0E0,0E0,0E0,0E0,0E0,0E0,0E0,0E0,0E0,0E0,0E0,0E0,0E0,0E0,0E0,0E0,0E0,0E0,0E0,0E0,0E0,0E0,0E0,0E0,0E0,0E0,0E0,0E0],"parents":[2147483647,0,0,1,1,2,2,3,3,4,4,5,5,6,6,7,7,8,8,9,9,10,10,11,11,12,12,13,13,14,14,15,15,16,16,17,17,18,18,19,19,20,20,21,21,22,22,23,23,24,24,25,25,26,26,27,27,28,28,29,29,30,30,31,31,32,32,33,33,34,34,35,35,36,36,37,37,38,38,39,39,40,40,41,41,42,42,45,45,47,47,48,48,49,49,50,50,56,56,61,61,62,62,63,63,64,64,65,65,66,66,67,67,68,68,69,69,70,70,71,71,72,72,73,73,74,74,75,75,76,76,78,78,79,79,80,80,82,82,83,83,84,84,85,85,86,86,89,89,90,90,92,92,93,93,97,97,98,98,99,99,101,101,103,103,104,104,105,105,106,106,107,107,108,108,109,109,110,110,111,111,112,112,113,113,114,114,115,115,116,116,117,117,118,118,119,119,120,120,121,121,122,122,123,123,124,124,125,125,127,127,128,128,133,133,134,134,135,135,136,136,137,137,138,138,139,139,140,140,141,141,144,144,149,149,150,150,151,151,152,152,153,153,162,162],"right_children":[2,4,6,8,10,12,14,16,18,20,22,24,26,28,30,32,34,36,38,40,42,44,46,48,50,52,54,56,58,60,62,64,66,68,70,72,74,76,78,80,82,84,86,-1,-1,88,-1,90,92,94,96,-1,-1,-1,-1,-1,98,-1,-1,-1,-1,100,102,104,106,108,110,112,114,116,118,120,122,124,126,128,130,-1,132,134,136,-1,138,140,142,144,146,-1,-1,148,150,-1,152,154,-1,-1,-1,156,158,160,-1,162,-1,164,166,168,170,172,174,176,178,180,182,184,186,188,190,192,194,196,198,200,202,204,206,208,-1,210,212,-1,-1,-1,-1,214,216,218,220,222,224,226,228,230,-1,-1,232,-1,-1,-1,-1,234,236,238,240,242,-1,-1,-1,-1,-1,-1,-1,-1,244,-1,-1,-1,-1,-1,-1,-1,-1,-1,-1,-1,-1,-1,-1,-1,-1,-1,-1,-1,-1,-1,-1,-1,-1,-1,-1,-1,-1,-1,-1,-1,-1,-1,-1,-1,-1,-1,-1,-1,-1,-1,-1,-1,-1,-1,-1,-1,-1,-1,-1,-1,-1,-1,-1,-1,-1,-1,-1,-1,-1,-1,-1,-1,-1,-1,-1,-1,-1,-1,-1,-1,-1,-1,-1,-1,-1,-1,-1,-1,-1,-1,-1],"split_conditions":[1E0,8.3E-1,1E0,8E-1,8E-1,6.2E-1,8.4E-1,5.7E-1,6.9E-1,5E-1,9E-1,7.8E-1,9E-1,1E0,9E-1,8.03107E1,8E-1,4.7E-1,8.8E-1,4E-1,6E-1,8.7E-1,8.9E-1,4E-1,7E-1,2E-1,3.1E-1,8.4E-1,7.9E-1,8E-1,9.2E-1,8.1E-1,4E-1,4E-1,5.1E-1,7E-1,8E-1,7.8E-1,9E-1,8E-1,1E-1,5E-1,3E-1,9.0736E-2,1.2898587E-1,1E0,2.4480405E-1,4.3E-1,1E-2,6E-1,2E-1,-3.2553334E-2,7.505303E-2,2.0382963E-1,7.854375E-2,-1.6038834E-1,9E-1,-1.4844653E-1,-2.0553332E-2,-1.6356996E-1,-1.24807954E-1,1E0,1E0,6E-1,5E-1,8E-1,9.1E-1,3.2E-1,6E-1,6E-1,7E-1,8E-1,5.9E-1,5.4E-1,5.2E-1,9E-1,9E-1,1.11639276E-1,8.9E-1,4.7E-1,4.8E-1,4.54963E-2,8E-1,9E-1,5.3E-1,8.6E-1,7.0333E0,1.2705699E-1,2.2386508E-1,3.1E-1,8E-1,3.729375E-2,8.4E-1,1E0,4.1113727E-2,1.4205104E-1,5.979375E-2,8E-1,6.7E-1,8.9E-1,-7.378573E-3,7E-2,1.754861E-2,4.2E-1,8E-1,1E0,9E-1,7E-1,5E-1,8.0641E1,8E-1,5E-1,7E-1,6.9E-1,8.1E-1,4.2E-1,7.2E-1,6.1E-1,4.4E-1,4E-1,3.7E-1,4.6E-1,9E-1,6.0311E0,9E-1,3.2E-1,1.7354374E-1,7.1E-1,4.6E-1,8.520594E-2,1.0905731E-1,1.1944667E-1,2.2284427E-1,8.05967E1,7.98417E1,9E-1,5.3E-1,5.1E-1,9.3E-1,2.2E-1,6.6E-1,8.8E-1,5.8155417E-2,4.1722223E-2,7E-1,9.711086E-2,6.813302E-2,-8.2040325E-2,-2.270625E-2,5.4E-1,4.3E-1,3.6E-1,2E-1,8.5E-1,-3.1618055E-2,-1.5770636E-1,-1.0287441E-1,-3.895625E-2,2.446666E-3,-1.00235716E-1,-3.237857E-2,-2.1456247E-2,5.5E-1,-7.152225E-2,9.83287E-3,1.818931E-2,9.184474E-2,-6.1533332E-2,-2.3016822E-2,8.993496E-2,1.7605633E-1,7.5628604E-3,1.173951E-1,-3.2314762E-2,1.2616476E-1,-2.1778082E-2,3.0292917E-2,5.597167E-3,2.0122874E-1,-7.6775365E-2,-3.3242196E-2,-3.56041E-2,5.6918273E-3,-1.1638699E-2,6.892605E-2,8.2465785E-4,3.4172606E-2,-3.0936984E-2,5.436974E-3,1.553473E-3,6.0971987E-2,3.3569753E-2,5.9811473E-2,7.238681E-2,1.2421316E-1,-3.0966876E-2,-9.828481E-3,-5.802986E-2,1.7330104E-1,-2.7485764E-2,7.242188E-3,3.6960315E-2,7.705104E-2,3.9625596E-2,9.857436E-3,2.8748652E-2,5.1441457E-2,3.4466672E-3,3.7548613E-2,4.6655416E-2,6.309364E-2,8.468838E-2,4.504861E-2,-7.945676E-2,-4.7344584E-2,-7.745139E-2,-3.931578E-2,-3.92475E-2,-1.645625E-2,-1.6642859E-3,2.8926043E-2,-6.725926E-3,2.2051042E-2,-2.0344583E-2,-2.1026328E-3,-1.0553334E-2,9.752502E-3,1.6782954E-2,3.0048614E-2,9.446668E-3,2.4536E-2,5.9272874E-2,7.934128E-2,-9.553333E-3,2.1446666E-2,-4.1495834E-2,9.79375E-3,-2.2196528E-2,8.381945E-3,4.979375E-2,-8.807145E-3,-1.4118056E-2,7.4365074E-3,-9.553335E-3,4.7642863E-3],"split_indices":[11,2,8,7,6,0,2,3,3,6,6,3,4,7,6,10,6,3,3,6,6,2,2,6,7,4,1,1,3,6,2,0,7,7,2,6,4,3,7,7,4,7,5,0,0,6,0,3,0,7,5,0,0,0,0,0,5,0,0,0,0,6,6,6,4,1,0,0,7,7,2,4,2,3,0,7,7,0,3,3,3,0,4,2,3,2,9,0,0,0,4,0,2,4,0,0,0,5,2,2,0,0,0,0,6,8,4,4,5,10,4,5,4,0,3,2,3,2,1,4,0,2,6,9,7,0,0,3,0,0,0,0,0,10,10,7,3,3,2,0,1,2,0,0,6,0,0,0,0,3,0,0,4,3,0,0,0,0,0,0,0,0,1,0,0,0,0,0,0,0,0,0,0,0,0,0,0,0,0,0,0,0,0,0,0,0,0,0,0,0,0,0,0,0,0,0,0,0,0,0,0,0,0,0,0,0,0,0,0,0,0,0,0,0,0,0,0,0,0,0,0,0,0,0,0,0,0,0,0,0,0,0,0,0,0,0,0,0,0,0,0,0,0,0,0],"split_type":[0,0,0,0,0,0,0,0,0,0,0,0,0,0,0,0,0,0,0,0,0,0,0,0,0,0,0,0,0,0,0,0,0,0,0,0,0,0,0,0,0,0,0,0,0,0,0,0,0,0,0,0,0,0,0,0,0,0,0,0,0,0,0,0,0,0,0,0,0,0,0,0,0,0,0,0,0,0,0,0,0,0,0,0,0,0,0,0,0,0,0,0,0,0,0,0,0,0,0,0,0,0,0,0,0,0,0,0,0,0,0,0,0,0,0,0,0,0,0,0,0,0,0,0,0,0,0,0,0,0,0,0,0,0,0,0,0,0,0,0,0,0,0,0,0,0,0,0,0,0,0,0,0,0,0,0,0,0,0,0,0,0,0,0,0,0,0,0,0,0,0,0,0,0,0,0,0,0,0,0,0,0,0,0,0,0,0,0,0,0,0,0,0,0,0,0,0,0,0,0,0,0,0,0,0,0,0,0,0,0,0,0,0,0,0,0,0,0,0,0,0,0,0,0,0,0,0,0,0,0,0,0,0,0,0,0,0,0,0,0,0,0,0,0,0],"sum_hessian":[5.739E3,4.603E3,1.136E3,3.858E3,7.45E2,1.9E2,9.46E2,2.873E3,9.85E2,4.75E2,2.7E2,1.65E2,2.5E1,7.96E2,1.5E2,1.168E3,1.705E3,5.15E2,4.7E2,2.19E2,2.56E2,7.9E1,1.91E2,1.09E2,5.6E1,1.4E1,1.1E1,7.81E2,1.5E1,1.14E2,3.6E1,3.23E2,8.45E2,1.001E3,7.04E2,3.21E2,1.94E2,2.78E2,1.92E2,1.59E2,6E1,8.6E1,1.7E2,2.4E1,5.5E1,6.2E1,1.29E2,8.1E1,2.8E1,4.6E1,1E1,4E0,1E1,8E0,3E0,6.73E2,1.08E2,1.1E1,4E0,9.3E1,2.1E1,1.8E1,1.8E1,1.86E2,1.37E2,4.5E2,3.95E2,3.85E2,6.16E2,4.46E2,2.58E2,2.56E2,6.5E1,1.82E2,1.2E1,1.15E2,1.63E2,1.28E2,6.4E1,1.34E2,2.5E1,8E0,5.2E1,3.9E1,4.7E1,9E1,8E1,4.2E1,2E1,3.3E1,4.8E1,3E0,2.5E1,3E1,1.6E1,7E0,3E0,1.01E2,7E0,1.2E1,6E0,1.3E1,5E0,1.16E2,7E1,6.9E1,6.8E1,2.86E2,1.64E2,3.18E2,7.7E1,2.7E2,1.15E2,4.58E2,1.58E2,3.89E2,5.7E1,2.29E2,2.9E1,2.38E2,1.8E1,3.8E1,2.7E1,7.7E1,1.05E2,9E0,3E0,7.3E1,4.2E1,1.07E2,5.6E1,4E0,6E1,5.5E1,7.9E1,1.2E1,1.3E1,1.5E1,3.7E1,1.3E1,2.6E1,2.8E1,1.9E1,2E1,7E1,5.5E1,2.5E1,3E1,3E0,8E0,4E1,1.6E1,9E0,2.5E1,5E0,8.8E1,1.3E1,3E0,4E0,6E0,6E0,3E0,1E1,9.9E1,1.7E1,5.2E1,1.8E1,1.6E1,5.3E1,4E1,2.8E1,2.07E2,7.9E1,3.4E1,1.3E2,7.2E1,2.46E2,4.9E1,2.8E1,1.61E2,1.09E2,6.4E1,5.1E1,4.51E2,7E0,7.2E1,8.6E1,2E2,1.89E2,1.1E1,4.6E1,1.69E2,6E1,1.1E1,1.8E1,1.6E2,7.8E1,1.1E1,7E0,2.3E1,1.5E1,2E1,7E0,1.3E1,6.4E1,6.7E1,3.8E1,4E0,5E0,1.9E1,5.4E1,3.7E1,5E0,3.6E1,1.9E1,5E0,7.4E1,9E0,3E0,6E0,7E0,8E0,7E0,1.9E1,1.8E1,4E0,9E0,2.1E1,5E0,4E0,2.4E1,5E1,2E1,4E0,4E0,3.7E1,3E0,1.1E1,5E0,3E0,6E0,5E0,2E1,4E0,6E0],"tree_param":{"num_deleted":"0","num_feature":"12","num_nodes":"245","size_leaf_vector":"1"}},{"base_weights":[1.8561112E-2,5.7269925E-1,-2.3596745E0,3.002175E-2,8.295856E-1,1.378347E-1,-2.8703673E0,-3.5955423E-1,2.033433E0,3.295419E-1,1.7844542E0,-2.3043151E-1,2.633233E0,-2.9878323E0,-2.2827122E0,-6.148482E-1,7.3929137E-1,-1.0408447E0,2.7115874E0,-4.2481948E-2,1.0916002E0,1.1462793E0,3.066452E0,-6.454863E-1,5.963213E-1,1.2614864E0,1.761473E-1,-3.0171986E0,-2.5773506E0,-2.9741793E0,-4.1251448E-1,-1.3006415E0,-4.964456E-1,-4.0445137E-1,1.6765808E0,-7.135657E-2,-7.304635E-1,1.6175939E0,3.657548E0,-5.5859715E-1,2.3804983E-1,-1.1638235E-1,2.0189571E0,3.254089E-1,1.4283739E0,2.3496919E0,2.3435616E-1,-1.18196055E-1,-1.0143905E0,2.2085597E-1,2.4908266E0,2.8714845E-2,8.692141E-2,-1.8936394E0,-1.5129389E-1,-2.8112576E0,-6.0299537E-3,-1.5487567E-1,-1.178447E-1,-8.741677E-1,-1.0615389E-2,1.3494676E-1,-1.4571713E0,-1.1345397E0,-3.0418485E-1,-1.0848695E0,8.028722E-2,1.199444E0,2.2749786E0,-4.6989117E-2,-2.3448436E-2,1.2102917E0,1.95996E0,1.7661645E0,4.1544013E0,-6.247147E-1,2.2879215E-1,9.1822445E-2,7.9462075E-1,-5.034581E-1,4.3083245E-1,1.5337588E0,2.809362E0,2.050896E-1,2.6956384E0,1.1948938E0,2.2076747E0,1.9190183E0,3.0457702E0,3.6454722E-2,-1.9426502E-1,-1.4593712E0,-7.291727E-1,-1.4202237E-1,8.133834E-1,5.6745052E-2,1.4898197E-1,-1.161378E-1,-4.4191692E-2,-1.4772469E-1,-8.993151E-2,-1.3193096E0,-1.8351534E-1,-2.1273212E-1,3.4988272E-1,-1.6473525E0,-7.046553E-1,-1.3633686E0,-3.2887307E-1,-5.4441506E-1,9.424376E-2,-1.3529744E0,-6.820897E-1,-3.4695816E-1,2.8237507E-1,4.063223E-2,1.3881E0,9.695505E-2,1.5840478E-1,4.5501526E-2,1.42611E0,7.574915E-2,1.103056E-1,5.51818E-2,9.8702535E-2,3.1213992E0,2.2353025E-1,-8.605963E-1,-5.0276583E-1,-1.1254873E0,2.470672E0,-1.7254668E-1,2.8061885E-1,1.4622127E-1,1.2105802E0,-6.8724835E-1,-1.818553E-1,1.9198683E-1,6.743617E-1,7.901566E-1,1.6433069E0,2.0511687E0,2.1573035E-1,-8.832068E-2,6.0776055E-1,7.504057E-2,1.6756688E-1,9.374027E-1,1.6569252E0,1.762543E0,3.1326404E0,1.6442652E0,1.0694355E-1,1.1679321E-1,2.1852009E-1,-4.1090646E-1,7.5417936E-2,-8.021476E-2,-3.7860826E-2,-8.2796705E-1,-7.4388983E-4,4.7384147E-2,-3.3440664E-2,2.3002272E-2,4.7585767E-2,-9.5774904E-2,-3.0990914E-2,-1.4643948E-2,1.3204456E-3,-1.9673489E-2,-6.494255E-2,6.635678E-3,2.1817422E-2,-8.7610506E-2,-2.4833946E-2,-4.3152135E-2,-1.1079616E-2,-8.265253E-2,-4.4018816E-2,-8.51384E-2,-4.0109805E-3,-3.2023173E-2,5.2320925E-3,-1.1784832E-2,3.3889383E-2,-7.6766044E-2,-4.189756E-2,-3.7876453E-2,-9.547505E-3,-2.2976518E-2,5.5303774E-4,4.6974043E-3,1.8829888E-2,2.9735444E-2,7.3237106E-2,5.216077E-2,8.262202E-2,1.04430914E-1,1.9470318E-1,-5.293367E-2,-2.7062729E-2,-4.3921355E-2,-2.1605445E-2,-3.1388678E-2,-8.509355E-2,6.136049E-2,1.5816449E-1,-2.0000437E-2,3.3801194E-2,7.1030296E-3,3.535107E-2,-1.5122697E-2,3.6321387E-2,3.8329393E-2,9.680908E-2,-3.9543837E-2,-1.9054454E-2,-1.5958134E-2,8.368555E-3,2.0783776E-3,2.2047682E-2,2.57622E-2,5.129258E-2,1.9068466E-2,4.5285687E-2,6.9662444E-2,9.685337E-2,7.7114485E-2,1.0726061E-1,-1.5356659E-2,1.888223E-2,9.160897E-3,5.0291695E-2,4.223905E-2,1.00211255E-1,5.485602E-2,1.0008337E-1,5.765128E-2,1.0109659E-1,1.146251E-1,1.9927204E-1,6.953328E-2,9.156991E-2,-4.5699712E-2,-1.1520499E-2,1.1733991E-2,-3.8110886E-3,-4.6025842E-2,-2.6697159E-2,1.5610409E-2,-4.3994687E-3,-9.847999E-3,9.886742E-4],"categories":[],"categories_nodes":[],"categories_segments":[],"categories_sizes":[],"default_left":[0,0,0,0,0,0,0,0,0,0,0,0,0,0,0,0,0,0,0,0,0,0,0,0,0,0,0,0,0,0,0,0,0,0,0,0,0,0,0,0,0,0,0,0,0,0,0,0,0,0,0,0,0,0,0,0,0,0,0,0,0,0,0,0,0,0,0,0,0,0,0,0,0,0,0,0,0,0,0,0,0,0,0,0,0,0,0,0,0,0,0,0,0,0,0,0,0,0,0,0,0,0,0,0,0,0,0,0,0,0,0,0,0,0,0,0,0,0,0,0,0,0,0,0,0,0,0,0,0,0,0,0,0,0,0,0,0,0,0,0,0,0,0,0,0,0,0,0,0,0,0,0,0,0,0,0,0,0,0,0,0,0,0,0,0,0,0,0,0,0,0,0,0,0,0,0,0,0,0,0,0,0,0,0,0,0,0,0,0,0,0,0,0,0,0,0,0,0,0,0,0,0,0,0,0,0,0,0,0,0,0,0,0,0,0,0,0,0,0,0,0,0,0,0,0,0,0,0,0,0,0,0,0,0,0,0,0,0,0,0,0,0,0,0,0,0,0,0,0,0,0,0,0],"id":1,"left_children":[1,3,5,7,9,11,13,15,17,19,21,23,25,27,29,31,33,35,37,39,41,43,45,47,49,51,-1,53,55,57,59,61,63,65,67,-1,69,71,73,75,77,79,81,83,85,87,-1,89,91,93,95,-1,-1,97,-1,99,-1,-1,-1,101,103,-1,105,107,109,111,113,115,117,-1,-1,119,121,123,125,127,129,131,133,135,137,139,141,143,145,147,149,151,153,-1,155,157,159,161,163,-1,-1,-1,-1,-1,-1,165,167,169,171,173,175,177,179,181,183,185,187,189,191,-1,193,-1,-1,-1,195,-1,-1,-1,-1,197,-1,199,201,203,205,207,209,211,213,215,217,219,221,223,225,227,-1,229,231,-1,-1,233,235,237,239,241,-1,-1,-1,243,245,-1,-1,247,-1,249,-1,-1,-1,-1,-1,-1,-1,-1,251,-1,-1,-1,-1,-1,-1,-1,-1,-1,-1,-1,-1,-1,-1,-1,-1,-1,-1,-1,-1,-1,-1,-1,-1,-1,-1,-1,-1,-1,-1,-1,-1,-1,-1,-1,-1,-1,-1,-1,-1,-1,-1,-1,-1,-1,-1,-1,-1,-1,-1,-1,-1,-1,-1,-1,-1,-1,-1,-1,-1,-1,-1,-1,-1,-1,-1,-1,-1,-1,-1,-1,-1,-1,-1,-1,-1,-1,-1,-1,-1,-1,-1],"loss_changes":[7.601513E3,6.521185E2,1.3906475E3,1.1745743E3,1.5153984E3,1.7153537E2,5.5649902E1,3.539206E2,5.1360693E2,5.9115186E2,8.8907446E2,5.6317993E1,2.4846893E1,1.2768555E0,1.9921606E2,8.242163E1,2.558184E2,4.3528595E0,2.0209338E2,2.0312396E2,7.664731E2,1.6857623E2,4.094973E2,2.1082737E1,3.857254E1,2.6068687E0,0E0,1.0473633E0,3.2416107E1,1.3024902E0,7.968856E0,9.784071E1,1.06877594E2,3.57082E1,3.4674072E1,0E0,1.037137E0,1.087529E1,9.321484E1,2.5860672E1,7.390682E1,6.3337345E1,1.4410669E2,5.3061806E1,9.616162E1,7.0000244E1,0E0,3.1064534E0,7.05851E0,1.0221241E1,2.5835419E0,0E0,0E0,1.4136658E0,0E0,2.2282715E0,0E0,0E0,0E0,5.9066515E0,1.8231362E0,0E0,1.959076E1,3.6792328E1,6.446723E1,3.9365768E0,5.6238027E0,4.344864E0,1.0955505E1,0E0,0E0,1.6830826E0,2.1343842E0,1.1268921E0,1.3483276E1,1.2684372E1,1.2118984E2,3.6034927E1,5.079779E1,1.0218826E1,7.083103E0,1.8414917E1,1.5777502E2,2.1320284E1,2.0212936E0,4.8413696E1,4.5533264E1,6.0875244E0,7.912598E1,0E0,2.5432434E0,1.2274246E0,2.8809814E0,3.0250201E0,4.4197083E-1,0E0,0E0,0E0,0E0,0E0,0E0,3.8170834E0,2.1435729E-1,4.0182525E-1,1.1108971E-1,1.300531E1,2.180602E0,2.05112E1,1.55780945E1,2.625019E1,4.9063564E1,1.1552048E0,5.9637547E-1,8.514452E-1,7.457993E-1,0E0,2.1084518E0,0E0,0E0,0E0,4.426651E-1,0E0,0E0,0E0,0E0,1.0220627E1,0E0,9.168152E0,7.6629868E0,6.103462E0,9.036636E0,5.836872E1,2.4772911E1,1.974403E1,3.55643E1,3.2202835E0,3.1702569E0,2.3784325E0,2.8830605E0,1.2134514E0,1.2727234E1,1.4292908E0,0E0,1.0821684E1,1.2659639E1,0E0,0E0,2.5183456E1,2.6559235E1,1.1265442E1,1.8805725E1,1.0124054E0,0E0,0E0,0E0,1.9687405E0,5.0089616E-1,0E0,0E0,4.8812485E-1,0E0,8.520247E-1,0E0,0E0,0E0,0E0,0E0,0E0,0E0,0E0,1.1573452E-1,0E0,0E0,0E0,0E0,0E0,0E0,0E0,0E0,0E0,0E0,0E0,0E0,0E0,0E0,0E0,0E0,0E0,0E0,0E0,0E0,0E0,0E0,0E0,0E0,0E0,0E0,0E0,0E0,0E0,0E0,0E0,0E0,0E0,0E0,0E0,0E0,0E0,0E0,0E0,0E0,0E0,0E0,0E0,0E0,0E0,0E0,0E0,0E0,0E0,0E0,0E0,0E0,0E0,0E0,0E0,0E0,0E0,0E0,0E0,0E0,0E0,0E0,0E0,0E0,0E0,0E0,0E0,0E0,0E0,0E0,0E0,0E0,0E0,0E0,0E0,0E0,0E0,0E0,0E0,0E0,0E0,0E0],"parents":[2147483647,0,0,1,1,2,2,3,3,4,4,5,5,6,6,7,7,8,8,9,9,10,10,11,11,12,12,13,13,14,14,15,15,16,16,17,17,18,18,19,19,20,20,21,21,22,22,23,23,24,24,25,25,27,27,28,28,29,29,30,30,31,31,32,32,33,33,34,34,36,36,37,37,38,38,39,39,40,40,41,41,42,42,43,43,44,44,45,45,47,47,48,48,49,49,50,50,53,53,55,55,59,59,60,60,62,62,63,63,64,64,65,65,66,66,67,67,68,68,71,71,72,72,73,73,74,74,75,75,76,76,77,77,78,78,79,79,80,80,81,81,82,82,83,83,84,84,85,85,86,86,87,87,88,88,90,90,91,91,92,92,93,93,94,94,101,101,102,102,103,103,104,104,105,105,106,106,107,107,108,108,109,109,110,110,111,111,112,112,113,113,114,114,116,116,120,120,125,125,127,127,128,128,129,129,130,130,131,131,132,132,133,133,134,134,135,135,136,136,137,137,138,138,139,139,140,140,141,141,143,143,144,144,147,147,148,148,149,149,150,150,151,151,155,155,156,156,159,159,161,161,170,170],"right_children":[2,4,6,8,10,12,14,16,18,20,22,24,26,28,30,32,34,36,38,40,42,44,46,48,50,52,-1,54,56,58,60,62,64,66,68,-1,70,72,74,76,78,80,82,84,86,88,-1,90,92,94,96,-1,-1,98,-1,100,-1,-1,-1,102,104,-1,106,108,110,112,114,116,118,-1,-1,120,122,124,126,128,130,132,134,136,138,140,142,144,146,148,150,152,154,-1,156,158,160,162,164,-1,-1,-1,-1,-1,-1,166,168,170,172,174,176,178,180,182,184,186,188,190,192,-1,194,-1,-1,-1,196,-1,-1,-1,-1,198,-1,200,202,204,206,208,210,212,214,216,218,220,222,224,226,228,-1,230,232,-1,-1,234,236,238,240,242,-1,-1,-1,244,246,-1,-1,248,-1,250,-1,-1,-1,-1,-1,-1,-1,-1,252,-1,-1,-1,-1,-1,-1,-1,-1,-1,-1,-1,-1,-1,-1,-1,-1,-1,-1,-1,-1,-1,-1,-1,-1,-1,-1,-1,-1,-1,-1,-1,-1,-1,-1,-1,-1,-1,-1,-1,-1,-1,-1,-1,-1,-1,-1,-1,-1,-1,-1,-1,-1,-1,-1,-1,-1,-1,-1,-1,-1,-1,-1,-1,-1,-1,-1,-1,-1,-1,-1,-1,-1,-1,-1,-1,-1,-1,-1,-1,-1,-1,-1],"split_conditions":[1E0,5E-1,1E0,7E-1,6.3E-1,6.2E-1,8.4E-1,8E-1,4E-1,7E-1,9E-1,7.8E-1,9E-1,9.1E-1,9E-1,3.5E-1,6.5E-1,3.9E-1,9E-1,4.2E-1,6.7E-1,6E-1,8.9E-1,6.95E0,7E-1,4.2E-1,1.761473E-1,2.4E-1,9E-1,8E-1,9.2E-1,1E-1,3E-1,4E-1,8.6E-1,-7.135657E-2,8E-1,8.9E-1,8.1E-1,8E-1,5.2E-1,4.8E-1,8.9E-1,8E-1,8E-1,8E-1,2.3435616E-1,4.4E-1,4.3E-1,6E-1,8.9E-1,2.8714845E-2,8.692141E-2,9E-1,-1.5129389E-1,8E-1,-6.0299537E-3,-1.5487567E-1,-1.178447E-1,1E0,1E0,1.3494676E-1,4E-1,3E-1,8.1E-1,3.1E-1,4.8E-1,7.3E-1,9E-1,-4.6989117E-2,-2.3448436E-2,8E-1,8E-1,8.03167E1,8.9E-1,3.4E-1,4E-1,8E-1,6E-1,2E-1,5.9E-1,8E-1,9E-1,5E-1,9E-1,8.6E-1,8.1E-1,7.1E-1,1E0,3.6454722E-2,2E-1,2E-1,3.7E-1,1E0,8.4E-1,5.6745052E-2,1.4898197E-1,-1.161378E-1,-4.4191692E-2,-1.4772469E-1,-8.993151E-2,8.9E-1,6.4333E0,1E-1,5.5E-1,3.1E-1,4E-1,6.1E-1,4E-1,4E-1,6E-1,2.6E-1,8.7E-1,2.9E-1,5.3E-1,4.063223E-2,2E-2,9.695505E-2,1.5840478E-1,4.5501526E-2,7.8E-1,7.574915E-2,1.103056E-1,5.51818E-2,9.8702535E-2,1E0,2.2353025E-1,4E-1,7E-1,1E0,8.2E-1,7.9E-1,5.4E-1,8E-1,8E-1,4E-1,9E-1,9E-1,9E-1,7.3E-1,8E-1,8E-1,2.1573035E-1,8.4E-1,9E-1,7.504057E-2,1.6756688E-1,8E-1,7E-1,7E-1,9E-1,6E-1,1.0694355E-1,1.1679321E-1,2.1852009E-1,3.6E-1,2E-1,-8.021476E-2,-3.7860826E-2,6E-1,-7.4388983E-4,2E-1,-3.3440664E-2,2.3002272E-2,4.7585767E-2,-9.5774904E-2,-3.0990914E-2,-1.4643948E-2,1.3204456E-3,-1.9673489E-2,4.9E-1,6.635678E-3,2.1817422E-2,-8.7610506E-2,-2.4833946E-2,-4.3152135E-2,-1.1079616E-2,-8.265253E-2,-4.4018816E-2,-8.51384E-2,-4.0109805E-3,-3.2023173E-2,5.2320925E-3,-1.1784832E-2,3.3889383E-2,-7.6766044E-2,-4.189756E-2,-3.7876453E-2,-9.547505E-3,-2.2976518E-2,5.5303774E-4,4.6974043E-3,1.8829888E-2,2.9735444E-2,7.3237106E-2,5.216077E-2,8.262202E-2,1.04430914E-1,1.9470318E-1,-5.293367E-2,-2.7062729E-2,-4.3921355E-2,-2.1605445E-2,-3.1388678E-2,-8.509355E-2,6.136049E-2,1.5816449E-1,-2.0000437E-2,3.3801194E-2,7.1030296E-3,3.535107E-2,-1.5122697E-2,3.6321387E-2,3.8329393E-2,9.680908E-2,-3.9543837E-2,-1.9054454E-2,-1.5958134E-2,8.368555E-3,2.0783776E-3,2.2047682E-2,2.57622E-2,5.129258E-2,1.9068466E-2,4.5285687E-2,6.9662444E-2,9.685337E-2,7.7114485E-2,1.0726061E-1,-1.5356659E-2,1.888223E-2,9.160897E-3,5.0291695E-2,4.223905E-2,1.00211255E-1,5.485602E-2,1.0008337E-1,5.765128E-2,1.0109659E-1,1.146251E-1,1.9927204E-1,6.953328E-2,9.156991E-2,-4.5699712E-2,-1.1520499E-2,1.1733991E-2,-3.8110886E-3,-4.6025842E-2,-2.6697159E-2,1.5610409E-2,-4.3994687E-3,-9.847999E-3,9.886742E-4],"split_indices":[11,6,8,0,2,0,2,7,4,7,6,3,4,1,6,3,3,3,4,2,3,6,2,9,7,2,0,2,5,6,2,4,7,3,3,0,7,0,0,4,1,3,3,3,5,2,0,2,3,7,3,0,0,7,0,5,0,0,0,6,6,0,6,0,3,3,3,3,7,0,0,4,4,10,0,2,0,6,5,4,3,7,7,3,7,2,1,2,6,0,6,5,0,4,3,0,0,0,0,0,0,2,9,0,1,0,5,2,4,0,7,0,2,0,3,0,1,0,0,0,0,0,0,0,0,4,0,7,6,4,0,0,2,6,1,3,6,7,7,3,3,7,0,2,7,0,0,3,6,6,5,5,0,0,0,3,4,0,0,7,0,4,0,0,0,0,0,0,0,0,1,0,0,0,0,0,0,0,0,0,0,0,0,0,0,0,0,0,0,0,0,0,0,0,0,0,0,0,0,0,0,0,0,0,0,0,0,0,0,0,0,0,0,0,0,0,0,0,0,0,0,0,0,0,0,0,0,0,0,0,0,0,0,0,0,0,0,0,0,0,0,0,0,0,0,0,0,0,0,0,0,0,0],"split_type":[0,0,0,0,0,0,0,0,0,0,0,0,0,0,0,0,0,0,0,0,0,0,0,0,0,0,0,0,0,0,0,0,0,0,0,0,0,0,0,0,0,0,0,0,0,0,0,0,0,0,0,0,0,0,0,0,0,0,0,0,0,0,0,0,0,0,0,0,0,0,0,0,0,0,0,0,0,0,0,0,0,0,0,0,0,0,0,0,0,0,0,0,0,0,0,0,0,0,0,0,0,0,0,0,0,0,0,0,0,0,0,0,0,0,0,0,0,0,0,0,0,0,0,0,0,0,0,0,0,0,0,0,0,0,0,0,0,0,0,0,0,0,0,0,0,0,0,0,0,0,0,0,0,0,0,0,0,0,0,0,0,0,0,0,0,0,0,0,0,0,0,0,0,0,0,0,0,0,0,0,0,0,0,0,0,0,0,0,0,0,0,0,0,0,0,0,0,0,0,0,0,0,0,0,0,0,0,0,0,0,0,0,0,0,0,0,0,0,0,0,0,0,0,0,0,0,0,0,0,0,0,0,0,0,0,0,0,0,0,0,0,0,0,0,0,0,0,0,0,0,0,0,0],"sum_hessian":[5.766E3,4.677E3,1.089E3,1.503E3,3.174E3,1.85E2,9.04E2,1.259E3,2.44E2,2.084E3,1.09E3,1.62E2,2.3E1,7.5E2,1.54E2,1.022E3,2.37E2,4.4E1,2E2,1.401E3,6.83E2,7.29E2,3.61E2,1.08E2,5.4E1,1E1,1.3E1,6.94E2,5.6E1,1.12E2,4.2E1,1.49E2,8.73E2,1.07E2,1.3E2,1.8E1,2.6E1,9.4E1,1.06E2,4.93E2,9.08E2,2.97E2,3.86E2,1.87E2,5.42E2,2.52E2,1.09E2,4.5E1,6.3E1,4.6E1,8E0,5E0,5E0,7E0,6.87E2,5.1E1,5E0,9E1,2.2E1,1.9E1,2.3E1,5E0,1.44E2,2.01E2,6.72E2,4.4E1,6.3E1,7.4E1,5.6E1,1.3E1,1.3E1,4.5E1,4.9E1,2.3E1,8.3E1,4.55E2,3.8E1,7.2E2,1.88E2,1.74E2,1.23E2,2.41E2,1.45E2,1.79E2,8E0,4.19E2,1.23E2,1.58E2,9.4E1,3E0,4.2E1,2.3E1,4E1,2.9E1,1.7E1,3E0,5E0,4E0,3E0,4.3E1,8E0,1.1E1,8E0,1.5E1,8E0,1.14E2,3E1,1.56E2,4.5E1,4.19E2,2.53E2,2.5E1,1.9E1,2E1,4.3E1,2.6E1,4.8E1,4.3E1,1.3E1,2.1E1,2.4E1,2E1,2.9E1,7E0,1.6E1,2.2E1,6.1E1,1.53E2,3.02E2,2.4E1,1.4E1,3E2,4.2E2,7.4E1,1.14E2,1.1E2,6.4E1,6.3E1,6E1,3.2E1,2.09E2,9.8E1,4.7E1,1.04E2,7.5E1,4E0,4E0,2.71E2,1.48E2,8.5E1,3.8E1,7.4E1,8.4E1,6.3E1,3.1E1,2.3E1,1.9E1,1.8E1,5E0,3.5E1,5E0,2.2E1,7E0,6E0,1.1E1,5E0,6E0,5E0,3E0,6E0,9E0,3E0,5E0,1.04E2,1E1,2.2E1,8E0,9.6E1,6E1,6E0,3.9E1,3.65E2,5.4E1,1.62E2,9.1E1,1.7E1,8E0,1.6E1,3E0,1.5E1,5E0,1.5E1,2.8E1,5E0,4.3E1,1.1E1,1.3E1,1.1E1,1.1E1,9.3E1,6E1,4.6E1,2.56E2,1.4E1,1E1,6E0,8E0,2.37E2,6.3E1,3.18E2,1.02E2,4.2E1,3.2E1,7.2E1,4.2E1,8.1E1,2.9E1,4.6E1,1.8E1,4E1,2.3E1,4.3E1,1.7E1,8E0,2.4E1,1.16E2,9.3E1,1.8E1,8E1,7.1E1,3.3E1,3.7E1,3.8E1,2.51E2,2E1,5.8E1,9E1,2.7E1,5.8E1,2.1E1,1.7E1,3.5E1,3.9E1,5E0,1.8E1,9E0,1E1,2.5E1,1E1,7E0,1.5E1,3E0,6E0],"tree_param":{"num_deleted":"0","num_feature":"12","num_nodes":"253","size_leaf_vector":"1"}},{"base_weights":[-7.886734E-3,5.3598064E-1,-2.251514E0,1.5372465E-2,7.8093874E-1,1.4296983E-1,-2.7413313E0,-3.602656E-1,1.9965211E0,3.0342656E-1,1.7037286E0,-2.2049741E-1,2.2797244E0,-2.8402855E0,-2.237351E0,-5.957776E-1,6.2822956E-1,-1.0551013E0,2.602927E0,-3.24132E-2,1.0030164E0,1.1129559E0,2.92598E0,-5.9589714E-1,5.208324E-1,9.228403E-1,3.3941677E0,-2.85218E0,-1.9218658E0,-2.8455598E0,-3.719963E-1,-1.0583895E0,-4.510011E-1,-4.5838472E-1,1.5752001E0,-1.262483E0,-5.797863E-1,1.5418109E0,3.4909623E0,-4.038753E-1,2.684268E-1,2.5924714E-3,2.0365791E0,7.47423E-1,1.7550086E0,2.1807017E0,2.2248541E-1,-1.2529197E-1,-9.718703E-1,1.9129297E-1,2.2205057E0,-3.7039887E-2,1.443905E0,1.8372121E-1,8.5242845E-2,-2.878269E0,-2.4473937E0,-1.7679438E-2,-1.289795E-1,-1.4767575E-1,-1.1005624E-1,-7.7821726E-1,1.6773024E-1,-9.217455E-2,-8.5251266E-1,-8.923467E-1,-1.2739202E-1,-1.3342558E0,-1.4011666E-1,9.7974324E-1,1.9775615E0,-1.4166372E0,-3.5964366E-2,-4.636913E-2,-2.0033991E-2,1.1530606E0,1.8594272E0,2.0617247E0,2.0785478E-1,-4.7174716E-1,3.4393263E-1,-7.812464E-2,5.172289E-1,-5.163975E-1,5.4937E-1,1.6003673E0,2.7370493E0,4.8718178E-1,1.3183885E0,1.3920555E0,2.126935E0,1.7359607E0,2.6958466E0,-2.8765276E-1,4.128216E-1,-1.1234411E0,-2.5933635E-1,-1.491494E-1,7.6698303E-1,1.311262E-1,5.311762E-2,8.478409E-2,4.0131822E-2,-1.4538753E-1,-2.495197E0,-1.4678125E-1,-5.4436017E-2,-1.336188E0,-1.5539508E-1,-5.159881E-2,3.927925E-1,-1.0442019E0,1.0272308E-1,1.4108901E0,-1.0474957E0,-3.842166E-1,3.669467E-1,-3.229008E-2,-1.4153334E0,-5.07677E-1,1.1997792E-1,3.627894E-2,1.144911E0,8.695469E-2,2.8313904E0,-8.287858E-2,-5.0497275E-2,4.1602336E-2,1.3637493E0,7.261824E-2,1.0450393E-1,7.079063E-2,2.3652482E0,-5.6348425E-1,-1.4483167E-1,-8.635403E-1,2.9517307E0,3.6837173E-1,-2.7731937E-1,3.795447E-1,1.1448705E0,-6.856169E-1,-2.1427138E-1,2.1799481E-1,8.1426406E-1,1.3880501E0,9.504204E-2,9.949645E-2,2.0188227E-1,3.8582826E-1,2.2769256E0,1.0625639E0,1.01820104E-1,1.155662E0,1.8013674E0,1.7865915E0,3.333902E0,6.95401E-2,1.8686024E0,1.1009127E-1,3.8003397E0,-4.5020342E-2,-1.489579E-1,4.0318117E-2,-5.755645E-3,-1.4039283E0,-7.867967E-1,-2.1894018E-3,-2.03522E-2,3.3328928E-2,-2.9945537E-2,1.780072E-2,4.4883106E-2,-2.665219E0,-7.99598E-3,-2.5184384E-1,1.5231833E-2,-9.112098E-2,-2.7310992E-2,-1.3577607E-2,3.0103524E-4,-1.1855877E-2,3.0891572E-3,2.5328059E-2,6.1970684E-3,-6.83869E-2,-2.9884357E-2,-7.4035185E-3,3.939789E-2,1.9452536E-2,1.2480042E-1,-5.8782466E-2,-1.5813733E-2,-2.776567E-2,-7.742926E-3,6.782868E-3,4.0039103E-2,-7.981723E-2,-4.8304055E-2,-2.7611515E-2,-1.2165875E-3,-1.6548157E-3,1.3718801E-2,4.269428E-2,6.992063E-2,9.444646E-2,1.709964E-1,4.5940958E-2,7.995574E-2,9.093246E-2,1.3981031E-1,-3.9579686E-2,-2.1705728E-2,-1.1752331E-2,3.0328235E-2,-5.2430958E-2,1.3373512E-2,7.418628E-2,1.7198779E-1,2.499121E-3,7.894516E-2,3.29519E-3,-2.311105E-2,1.2840228E-2,3.68009E-2,5.0669264E-2,1.4703846E-1,-4.062619E-2,-2.168494E-2,-2.3767458E-2,1.9846054E-2,5.536951E-3,2.6696688E-2,3.1369474E-2,6.1283674E-2,4.647813E-2,7.411606E-2,3.0345097E-2,-4.72417E-3,7.150094E-2,1.5254718E-1,3.2057058E-2,6.2253017E-2,5.9263762E-2,1.150311E-2,9.695027E-2,4.947456E-2,3.191835E-2,9.662976E-2,1.17205165E-1,2.1879041E-1,8.0643915E-2,1.0187727E-1,1.0965331E-1,2.0434502E-1,-1.4502652E-2,6.106487E-3,-7.5178795E-2,-4.105867E-2,-4.643704E-2,-1.4456014E-2,-1.3513244E-2,6.6337623E-3,-1.419875E-1,-9.481665E-2,-1.9768167E-2,-2.2681684E-3],"categories":[],"categories_nodes":[],"categories_segments":[],"categories_sizes":[],"default_left":[0,0,0,0,0,0,0,0,0,0,0,0,0,0,0,0,0,0,0,0,0,0,0,0,0,0,0,0,0,0,0,0,0,0,0,0,0,0,0,0,0,0,0,0,0,0,0,0,0,0,0,0,0,0,0,0,0,0,0,0,0,0,0,0,0,0,0,0,0,0,0,0,0,0,0,0,0,0,0,0,0,0,0,0,0,0,0,0,0,0,0,0,0,0,0,0,0,0,0,0,0,0,0,0,0,0,0,0,0,0,0,0,0,0,0,0,0,0,0,0,0,0,0,0,0,0,0,0,0,0,0,0,0,0,0,0,0,0,0,0,0,0,0,0,0,0,0,0,0,0,0,0,0,0,0,0,0,0,0,0,0,0,0,0,0,0,0,0,0,0,0,0,0,0,0,0,0,0,0,0,0,0,0,0,0,0,0,0,0,0,0,0,0,0,0,0,0,0,0,0,0,0,0,0,0,0,0,0,0,0,0,0,0,0,0,0,0,0,0,0,0,0,0,0,0,0,0,0,0,0,0,0,0,0,0,0,0,0,0,0,0,0,0,0,0,0,0,0,0,0,0,0,0,0,0,0,0,0,0,0,0,0,0,0,0,0,0],"id":2,"left_children":[1,3,5,7,9,11,13,15,17,19,21,23,25,27,29,31,33,35,37,39,41,43,45,47,49,51,53,55,57,59,61,63,65,67,69,71,73,75,77,79,81,83,85,87,89,91,-1,93,95,97,99,-1,101,-1,-1,103,105,-1,-1,-1,-1,107,109,-1,111,113,115,117,119,121,123,125,-1,-1,-1,127,129,131,-1,133,135,137,139,141,143,145,147,149,151,153,155,157,159,161,163,165,167,169,171,-1,-1,-1,-1,-1,173,-1,175,177,179,181,183,185,187,189,191,193,195,-1,197,199,201,-1,203,-1,205,-1,-1,-1,207,-1,-1,-1,209,211,213,215,217,219,221,223,225,227,229,231,233,235,-1,-1,-1,237,239,241,-1,243,245,247,249,-1,251,-1,253,-1,255,-1,-1,257,259,-1,-1,261,-1,-1,-1,263,-1,265,-1,-1,-1,-1,-1,-1,-1,-1,-1,-1,-1,-1,-1,-1,-1,-1,-1,-1,-1,-1,-1,-1,-1,-1,-1,-1,-1,-1,-1,-1,-1,-1,-1,-1,-1,-1,-1,-1,-1,-1,-1,-1,-1,-1,-1,-1,-1,-1,-1,-1,-1,-1,-1,-1,-1,-1,-1,-1,-1,-1,-1,-1,-1,-1,-1,-1,-1,-1,-1,-1,-1,-1,-1,-1,-1,-1,-1,-1,-1,-1,-1,-1,-1,-1,-1,-1,-1,-1,-1,-1,-1],"loss_changes":[7.0358657E3,5.918417E2,1.3198584E3,1.1065929E3,1.3901534E3,1.4961761E2,4.022461E1,2.9137732E2,4.4132013E2,4.8896365E2,7.7369385E2,4.6229042E1,3.9208496E1,3.006836E0,1.7819641E2,6.7167786E1,2.4870901E2,3.2108917E0,1.811947E2,1.5734158E2,6.9794525E2,1.6930896E2,3.8775708E2,1.9341072E1,3.094136E1,1.3205726E1,8.372345E-1,1.034668E0,1.2497311E1,1.777832E0,8.900459E0,3.722061E1,1.1000316E2,3.1313131E1,2.8969482E1,1.2419014E0,5.0001097E-1,9.21553E0,9.329993E1,3.213797E1,6.712169E1,9.7901276E1,9.706348E1,6.845148E1,3.254193E1,4.9618286E1,0E0,4.4871764E0,6.296612E0,9.521881E0,1.4043388E0,0E0,4.1500664E-1,0E0,0E0,7.96875E-1,6.1760986E1,0E0,0E0,0E0,0E0,7.785244E0,9.0879595E-1,0E0,3.5264053E1,1.1797244E2,5.6764404E1,7.605171E-1,8.091349E0,1.4361877E0,1.0550354E1,2.856636E-1,0E0,0E0,0E0,1.8411942E0,1.565033E0,3.7090302E0,0E0,1.7252777E1,1.6943776E2,2.9096508E1,3.871206E1,8.9023285E0,1.4569416E1,1.05672E1,1.1439984E2,5.73499E1,2.4470581E1,1.1077423E1,4.6623962E1,3.3528748E0,5.0561768E1,3.1803257E0,2.5859878E0,3.6166115E0,3.642339E-1,2.5641837E0,6.4711094E-1,0E0,0E0,0E0,0E0,0E0,2.26026E1,0E0,7.8555834E-1,3.6138458E0,2.2662994E-1,2.2499461E-1,2.1249771E-1,2.2296707E1,5.787802E0,2.2314072E1,2.8302948E1,1.14512825E1,1.524362E1,0E0,5.7211685E-1,7.402744E-1,1.1907992E0,0E0,1.0929489E0,0E0,1.8600998E0,0E0,0E0,0E0,1.1487312E0,0E0,0E0,0E0,3.3259583E-1,1.2965561E1,8.819328E0,8.025539E0,7.075531E0,3.884853E1,1.4372988E1,1.6131077E1,1.6146744E1,3.2602386E0,1.0560646E1,2.5162303E0,6.38105E0,4.0248566E0,0E0,0E0,0E0,3.2443542E1,6.7809525E0,7.584717E0,0E0,2.166809E0,3.4451294E0,1.5866089E1,1.7587158E1,0E0,6.451416E-1,0E0,5.775757E0,0E0,1.297646E0,0E0,0E0,2.7513123E-1,1.4975386E0,0E0,0E0,7.295587E-1,0E0,0E0,0E0,1.8613892E0,0E0,1.8950284E-1,0E0,0E0,0E0,0E0,0E0,0E0,0E0,0E0,0E0,0E0,0E0,0E0,0E0,0E0,0E0,0E0,0E0,0E0,0E0,0E0,0E0,0E0,0E0,0E0,0E0,0E0,0E0,0E0,0E0,0E0,0E0,0E0,0E0,0E0,0E0,0E0,0E0,0E0,0E0,0E0,0E0,0E0,0E0,0E0,0E0,0E0,0E0,0E0,0E0,0E0,0E0,0E0,0E0,0E0,0E0,0E0,0E0,0E0,0E0,0E0,0E0,0E0,0E0,0E0,0E0,0E0,0E0,0E0,0E0,0E0,0E0,0E0,0E0,0E0,0E0,0E0,0E0,0E0,0E0,0E0,0E0,0E0,0E0,0E0,0E0,0E0,0E0,0E0,0E0,0E0,0E0],"parents":[2147483647,0,0,1,1,2,2,3,3,4,4,5,5,6,6,7,7,8,8,9,9,10,10,11,11,12,12,13,13,14,14,15,15,16,16,17,17,18,18,19,19,20,20,21,21,22,22,23,23,24,24,25,25,26,26,27,27,28,28,29,29,30,30,31,31,32,32,33,33,34,34,35,35,36,36,37,37,38,38,39,39,40,40,41,41,42,42,43,43,44,44,45,45,47,47,48,48,49,49,50,50,52,52,55,55,56,56,61,61,62,62,64,64,65,65,66,66,67,67,68,68,69,69,70,70,71,71,75,75,76,76,77,77,79,79,80,80,81,81,82,82,83,83,84,84,85,85,86,86,87,87,88,88,89,89,90,90,91,91,92,92,93,93,94,94,95,95,96,96,97,97,98,98,104,104,106,106,107,107,108,108,109,109,110,110,111,111,112,112,113,113,114,114,115,115,116,116,118,118,119,119,120,120,122,122,124,124,128,128,132,132,133,133,134,134,135,135,136,136,137,137,138,138,139,139,140,140,141,141,142,142,143,143,144,144,145,145,149,149,150,150,151,151,153,153,154,154,155,155,156,156,158,158,160,160,162,162,165,165,166,166,169,169,173,173,175,175],"right_children":[2,4,6,8,10,12,14,16,18,20,22,24,26,28,30,32,34,36,38,40,42,44,46,48,50,52,54,56,58,60,62,64,66,68,70,72,74,76,78,80,82,84,86,88,90,92,-1,94,96,98,100,-1,102,-1,-1,104,106,-1,-1,-1,-1,108,110,-1,112,114,116,118,120,122,124,126,-1,-1,-1,128,130,132,-1,134,136,138,140,142,144,146,148,150,152,154,156,158,160,162,164,166,168,170,172,-1,-1,-1,-1,-1,174,-1,176,178,180,182,184,186,188,190,192,194,196,-1,198,200,202,-1,204,-1,206,-1,-1,-1,208,-1,-1,-1,210,212,214,216,218,220,222,224,226,228,230,232,234,236,-1,-1,-1,238,240,242,-1,244,246,248,250,-1,252,-1,254,-1,256,-1,-1,258,260,-1,-1,262,-1,-1,-1,264,-1,266,-1,-1,-1,-1,-1,-1,-1,-1,-1,-1,-1,-1,-1,-1,-1,-1,-1,-1,-1,-1,-1,-1,-1,-1,-1,-1,-1,-1,-1,-1,-1,-1,-1,-1,-1,-1,-1,-1,-1,-1,-1,-1,-1,-1,-1,-1,-1,-1,-1,-1,-1,-1,-1,-1,-1,-1,-1,-1,-1,-1,-1,-1,-1,-1,-1,-1,-1,-1,-1,-1,-1,-1,-1,-1,-1,-1,-1,-1,-1,-1,-1,-1,-1,-1,-1,-1,-1,-1,-1,-1,-1],"split_conditions":[1E0,5E-1,1E0,7E-1,6.3E-1,6.2E-1,8.4E-1,8E-1,4E-1,7E-1,9E-1,7.9E-1,9E-1,1E0,9E-1,3E-1,6.5E-1,8E-1,9E-1,4.5E-1,7.2E-1,5E-1,8.9E-1,6.95E0,7E-1,2E-1,3.1E-1,9.2E-1,1.5E-1,8E-1,9.2E-1,4E-1,6.1E-1,3.1E-1,8.1E-1,3.2E-1,3.5E-1,8.9E-1,8.5E-1,8E-1,8E-1,4.8E-1,8.9E-1,7E-1,8E-1,7.8E-1,2.2248541E-1,8.5E-1,3.2E-1,6E-1,2E-1,-3.7039887E-2,4.1E-1,1.8372121E-1,8.5242845E-2,9.1E-1,9E-1,-1.7679438E-2,-1.289795E-1,-1.4767575E-1,-1.1005624E-1,1E0,1E0,-9.217455E-2,3.6E-1,1E-1,6E-1,3E-1,4.6E-1,7.1E-1,9E-1,2E-1,-3.5964366E-2,-4.636913E-2,-2.0033991E-2,8E-1,8E-1,7.5E-1,2.0785478E-1,3.4E-1,5.2E-1,5.5E-1,5.9E-1,7E-1,6.2E-1,9E-1,9E-1,8E-1,8.9E-1,8.9E-1,9.1E-1,6.7E-1,1E0,2.6E-1,8E-1,5E-1,5.7E-1,1E0,8.6E-1,1.311262E-1,5.311762E-2,8.478409E-2,4.0131822E-2,-1.4538753E-1,9E-1,-1.4678125E-1,9.6E-1,8.9E-1,6.4333E0,5.5E-1,5.1E-1,6.3E-1,4.8E-1,7.2E-1,3.5E-1,5E-1,8.8E-1,-3.229008E-2,2.6E-1,3.6E-1,5.3E-1,3.627894E-2,2.2E-1,8.695469E-2,8.8E-1,-8.287858E-2,-5.0497275E-2,4.1602336E-2,7.7E-1,7.261824E-2,1.0450393E-1,7.079063E-2,8.05167E1,3.6E-1,9E-1,3.4E-1,8.3E-1,7E-1,6.8585E0,5.6E-1,9E-1,3.6E-1,5.3E-1,8.08E1,9E-1,8E-1,9.504204E-2,9.949645E-2,2.0188227E-1,7.8E-1,9E-1,8.03107E1,1.01820104E-1,5E-1,7E-1,4.6E-1,9E-1,6.95401E-2,6E-1,1.1009127E-1,8E-1,-4.5020342E-2,8E-1,4.0318117E-2,-5.755645E-3,2E-1,6E-1,-2.1894018E-3,-2.03522E-2,8.5E-1,-2.9945537E-2,1.780072E-2,4.4883106E-2,8E-1,-7.99598E-3,3E-1,1.5231833E-2,-9.112098E-2,-2.7310992E-2,-1.3577607E-2,3.0103524E-4,-1.1855877E-2,3.0891572E-3,2.5328059E-2,6.1970684E-3,-6.83869E-2,-2.9884357E-2,-7.4035185E-3,3.939789E-2,1.9452536E-2,1.2480042E-1,-5.8782466E-2,-1.5813733E-2,-2.776567E-2,-7.742926E-3,6.782868E-3,4.0039103E-2,-7.981723E-2,-4.8304055E-2,-2.7611515E-2,-1.2165875E-3,-1.6548157E-3,1.3718801E-2,4.269428E-2,6.992063E-2,9.444646E-2,1.709964E-1,4.5940958E-2,7.995574E-2,9.093246E-2,1.3981031E-1,-3.9579686E-2,-2.1705728E-2,-1.1752331E-2,3.0328235E-2,-5.2430958E-2,1.3373512E-2,7.418628E-2,1.7198779E-1,2.499121E-3,7.894516E-2,3.29519E-3,-2.311105E-2,1.2840228E-2,3.68009E-2,5.0669264E-2,1.4703846E-1,-4.062619E-2,-2.168494E-2,-2.3767458E-2,1.9846054E-2,5.536951E-3,2.6696688E-2,3.1369474E-2,6.1283674E-2,4.647813E-2,7.411606E-2,3.0345097E-2,-4.72417E-3,7.150094E-2,1.5254718E-1,3.2057058E-2,6.2253017E-2,5.9263762E-2,1.150311E-2,9.695027E-2,4.947456E-2,3.191835E-2,9.662976E-2,1.17205165E-1,2.1879041E-1,8.0643915E-2,1.0187727E-1,1.0965331E-1,2.0434502E-1,-1.4502652E-2,6.106487E-3,-7.5178795E-2,-4.105867E-2,-4.643704E-2,-1.4456014E-2,-1.3513244E-2,6.6337623E-3,-1.419875E-1,-9.481665E-2,-1.9768167E-2,-2.2681684E-3],"split_indices":[11,6,8,0,2,0,2,7,4,7,6,3,4,7,6,7,3,7,4,2,3,5,2,9,7,4,1,0,1,6,2,4,3,3,3,1,3,0,0,4,6,3,3,6,5,2,0,2,0,7,5,0,3,0,0,1,4,0,0,0,0,6,6,0,0,4,7,4,3,3,7,4,0,0,0,4,4,0,0,1,0,3,1,6,3,7,7,3,2,2,1,2,6,3,4,3,2,4,3,0,0,0,0,0,5,0,0,2,9,1,3,2,0,1,0,7,3,0,3,0,3,0,0,0,3,0,0,0,0,0,0,0,10,2,5,0,0,4,9,2,5,3,2,10,7,7,0,0,0,1,7,10,0,0,5,1,5,0,5,0,2,0,7,0,0,5,7,0,0,3,0,0,0,5,0,3,0,0,0,0,0,0,0,0,0,0,0,0,0,0,0,0,0,0,0,0,0,0,0,0,0,0,0,0,0,0,0,0,0,0,0,0,0,0,0,0,0,0,0,0,0,0,0,0,0,0,0,0,0,0,0,0,0,0,0,0,0,0,0,0,0,0,0,0,0,0,0,0,0,0,0,0,0,0,0,0,0,0,0,0,0,0,0,0,0,0,0],"split_type":[0,0,0,0,0,0,0,0,0,0,0,0,0,0,0,0,0,0,0,0,0,0,0,0,0,0,0,0,0,0,0,0,0,0,0,0,0,0,0,0,0,0,0,0,0,0,0,0,0,0,0,0,0,0,0,0,0,0,0,0,0,0,0,0,0,0,0,0,0,0,0,0,0,0,0,0,0,0,0,0,0,0,0,0,0,0,0,0,0,0,0,0,0,0,0,0,0,0,0,0,0,0,0,0,0,0,0,0,0,0,0,0,0,0,0,0,0,0,0,0,0,0,0,0,0,0,0,0,0,0,0,0,0,0,0,0,0,0,0,0,0,0,0,0,0,0,0,0,0,0,0,0,0,0,0,0,0,0,0,0,0,0,0,0,0,0,0,0,0,0,0,0,0,0,0,0,0,0,0,0,0,0,0,0,0,0,0,0,0,0,0,0,0,0,0,0,0,0,0,0,0,0,0,0,0,0,0,0,0,0,0,0,0,0,0,0,0,0,0,0,0,0,0,0,0,0,0,0,0,0,0,0,0,0,0,0,0,0,0,0,0,0,0,0,0,0,0,0,0,0,0,0,0,0,0,0,0,0,0,0,0,0,0,0,0,0,0],"sum_hessian":[5.764E3,4.64E3,1.124E3,1.485E3,3.155E3,1.91E2,9.33E2,1.249E3,2.36E2,2.08E3,1.075E3,1.64E2,2.7E1,7.76E2,1.57E2,1.009E3,2.4E2,3.9E1,1.97E2,1.406E3,6.74E2,7.26E2,3.49E2,1.09E2,5.5E1,1.3E1,1.4E1,7.64E2,1.2E1,1.18E2,3.9E1,2.39E2,7.7E2,1.12E2,1.28E2,2.6E1,1.3E1,9.1E1,1.06E2,6.29E2,7.77E2,3.43E2,3.31E2,4.64E2,2.62E2,2.36E2,1.13E2,4.9E1,6E1,4.7E1,8E0,3E0,1E1,1.1E1,3E0,7.12E2,5.2E1,4E0,8E0,9.8E1,2E1,2.2E1,1.7E1,4.8E1,1.91E2,3.25E2,4.45E2,2.9E1,8.3E1,5.3E1,7.5E1,1.9E1,7E0,3E0,1E1,4.3E1,4.8E1,3.5E1,7.1E1,5.77E2,5.2E1,3.25E2,4.52E2,1.76E2,1.67E2,2.06E2,1.25E2,3.2E2,1.44E2,1.35E2,1.27E2,1.29E2,1.07E2,3.8E1,1.1E1,4.9E1,1.1E1,3E1,1.7E1,5E0,3E0,6E0,4E0,6.55E2,5.7E1,4.3E1,9E0,1.1E1,1.1E1,9E0,8E0,1.59E2,3.2E1,2E1,3.05E2,2.93E2,1.52E2,4E0,2.5E1,3.4E1,4.9E1,2.3E1,3E1,6.1E1,1.4E1,1E1,9E0,1.9E1,2.4E1,2E1,2.8E1,1.3E1,2.2E1,4.5E2,1.27E2,3.6E1,1.6E1,1E2,2.25E2,3.72E2,8E1,1.12E2,6.4E1,7.5E1,9.2E1,1.24E2,8.2E1,8.1E1,4.4E1,3.04E2,1.6E1,1.08E2,3.6E1,8.8E1,4.7E1,1.01E2,2.6E1,3.9E1,9E1,7.6E1,3.1E1,6E0,3.2E1,6E0,5E0,2.5E1,2.4E1,5E0,6E0,2.2E1,8E0,5E0,1.2E1,5.3E1,4E0,6E0,3E0,6E0,5E0,6E0,5E0,3E0,6E0,5E0,3E0,9.1E1,6.8E1,2.4E1,8E0,1.1E1,9E0,2.59E2,4.6E1,1.67E2,1.26E2,1E2,5.2E1,1.6E1,9E0,3.1E1,3E0,2.5E1,2.4E1,1.6E1,1.4E1,7E0,7E0,1E1,1.4E1,1.2E1,1E1,1.61E2,2.89E2,1.14E2,1.3E1,3.1E1,5E0,5E0,1.1E1,8E1,2E1,7.9E1,1.46E2,2.78E2,9.4E1,7.6E1,4E0,7.3E1,3.9E1,4.5E1,1.9E1,5.7E1,1.8E1,6.5E1,2.7E1,2.3E1,1.01E2,2.08E2,9.6E1,9E0,7E0,3.4E1,7.4E1,8.5E1,3E0,3.9E1,8E0,1.2E1,8.9E1,1.5E1,1.1E1,4E1,5E1,6E0,2.5E1,2.1E1,1.1E1,2E1,5E0,1.8E1,6E0,5E0,1.7E1,4.1E1,1.2E1,3E0,3E0],"tree_param":{"num_deleted":"0","num_feature":"12","num_nodes":"267","size_leaf_vector":"1"}},{"base_weights":[-1.7925214E-2,5.0154006E-1,-2.1504753E0,3.2593426E-1,1.1759441E0,6.4422056E-2,-2.5954063E0,1.17901675E-1,9.370012E-1,2.1018389E-1,2.9879258E0,-2.0152941E-1,2.468592E0,-2.7075768E0,-2.043405E0,6.88989E-3,1.0409695E0,7.571437E-2,1.939667E0,-8.3959085E-1,7.383434E-1,2.574915E0,4.2410593E0,-6.257703E-1,6.2160605E-1,-2.1900887E-2,3.0409575E0,-2.74131E0,-2.3325844E0,-2.6659572E0,-2.990942E-1,-2.4841215E-1,3.8853866E-1,-1.519192E-1,3.5539134E0,-2.9339606E-1,5.8136946E-1,1.5007199E0,2.613882E0,-1.0149953E0,-2.871121E-1,2.4850047E-1,1.1800804E0,1.9072907E0,3.243304E0,1.0693438E-1,2.1903668E-1,-8.376223E-1,5.4833014E-2,1.3656084E-1,3.3124977E-1,7.527589E-2,1.8010096E-1,-1.3933548E-1,-2.4065456E0,-1.3923787E-1,-6.04192E-1,-1.3940296E-1,-1.0825958E-1,-8.092508E-1,5.2087784E-2,-3.9064723E-1,5.9347695E-1,-8.0952704E-2,1.1254715E0,-3.394852E-1,1.2455254E0,1.0005423E-1,2.0399542E-1,-3.480411E-1,5.100848E-1,2.4470273E-1,7.2757643E-1,1.3296654E0,1.7862146E0,9.824965E-2,1.9109212E-1,-1.434525E0,-8.805433E-1,-5.66084E-1,3.2054093E-1,4.9515995E-1,-5.5733353E-2,8.780515E-1,1.4823688E0,1.6588267E0,1.0347717E-1,1.1449685E-1,1.9680737E-1,-1.2742226E0,-5.472142E-1,3.3753097E-1,-2.1267395E-1,1.563064E-2,3.876377E-2,-2.5486836E0,-3.1648684E-1,-1.2402729E0,-9.85162E-2,-1.305112E0,-8.41886E-3,-1.3328522E-1,3.8055044E-1,2.0644981E-2,-6.274621E-1,-7.0187527E-1,1.547002E0,-4.597226E-1,2.1625137E-1,7.8395456E-1,1.5915138E0,-6.492805E-1,-1.52709475E-2,3.0404592E-2,6.713037E-2,-4.448834E-1,6.4167105E-2,-1.0173435E0,1.3687335E-1,1.1175472E-1,8.9928323E-1,3.814226E-1,8.235908E-1,1.1198335E0,7.667949E-2,7.292237E-2,9.712174E-2,-1.6538771E0,-3.82852E-2,-9.23135E-1,5.1924787E-3,-4.2403605E-2,-3.698267E-1,-8.2446093E-4,4.255109E-1,2.905994E-1,9.252011E-1,-2.646411E-1,2.6497942E-1,3.9264137E-1,9.7299933E-1,1.3122951E0,2.1650786E0,3.8900435E-2,8.470025E-2,-1.3495011E0,-1.861293E-2,-8.0044615E-1,-1.424929E-1,-5.7240814E-2,3.7024003E-2,9.747074E-3,-3.786197E-1,1.4187372E-1,-2.7753416E-2,-1.3086613E-1,-4.5663487E-2,7.511166E-3,-3.5203766E-2,-2.0457745E-2,-8.806613E-2,-1.5016993E-2,4.3044765E-3,-8.465424E-2,-2.8926108E-2,-1.853573E-2,1.6322315E-2,2.4272718E-2,8.927782E-3,-2.1476135E-2,6.3255797E-3,-4.091382E-2,-2.1412684E-2,-4.9965266E-2,1.5158823E-4,5.6965303E-2,1.2319137E-1,2.0447074E-2,-3.1963136E-2,7.0553184E-3,3.7124258E-2,2.7645815E-2,5.727873E-2,7.099753E-2,1.7177337E-1,-4.1265406E-2,8.4415026E-4,-1.6637443E-2,1.8701062E-2,-2.887067E-2,-8.037981E-3,-1.9883705E-2,2.9866813E-2,-6.543797E-2,-1.7380474E-2,-1.4735328E-2,1.03261275E-2,8.475631E-3,8.705528E-2,8.867757E-4,2.2936108E-2,4.8491447E-3,4.210938E-2,4.4806607E-2,6.168468E-2,-8.850586E-2,-3.9419882E-2,-7.49861E-2,-4.337838E-2,-2.6337234E-2,-1.0430087E-2,3.2923103E-3,2.6341287E-2,9.400683E-3,5.167014E-2,2.3862656E-2,5.690815E-2,-2.0067334E-2,-1.2098256E-3,-7.8058913E-3,1.8600348E-2,2.6283769E-2,6.36905E-3,4.1918304E-2,5.961911E-2,4.9049973E-2,7.2037324E-2,6.0635664E-2,1.5971677E-1,-8.081852E-2,-5.3348202E-2,-4.93085E-2,-1.37332175E-2,-1.3830376E-2,1.3062364E-2,1.5290074E-2,-2.4836674E-2,-2.702128E-2,-3.818376E-3,-1.1831697E-3,1.3794049E-2,-9.0341E-3,5.10331E-3],"categories":[],"categories_nodes":[],"categories_segments":[],"categories_sizes":[],"default_left":[0,0,0,0,0,0,0,0,0,0,0,0,0,0,0,0,0,0,0,0,0,0,0,0,0,0,0,0,0,0,0,0,0,0,0,0,0,0,0,0,0,0,0,0,0,0,0,0,0,0,0,0,0,0,0,0,0,0,0,0,0,0,0,0,0,0,0,0,0,0,0,0,0,0,0,0,0,0,0,0,0,0,0,0,0,0,0,0,0,0,0,0,0,0,0,0,0,0,0,0,0,0,0,0,0,0,0,0,0,0,0,0,0,0,0,0,0,0,0,0,0,0,0,0,0,0,0,0,0,0,0,0,0,0,0,0,0,0,0,0,0,0,0,0,0,0,0,0,0,0,0,0,0,0,0,0,0,0,0,0,0,0,0,0,0,0,0,0,0,0,0,0,0,0,0,0,0,0,0,0,0,0,0,0,0,0,0,0,0,0,0,0,0,0,0,0,0,0,0,0,0,0,0,0,0,0,0,0,0,0,0,0,0,0,0,0,0,0,0,0,0,0,0,0,0,0,0,0,0,0,0,0,0,0,0,0,0,0,0,0,0,0,0],"id":3,"left_children":[1,3,5,7,9,11,13,15,17,19,21,23,25,27,29,31,33,35,37,39,41,43,45,47,49,-1,51,53,55,57,59,61,63,65,67,69,71,73,75,77,79,81,83,85,87,-1,-1,89,91,-1,93,-1,-1,-1,95,-1,97,-1,-1,99,101,103,105,107,109,111,113,-1,-1,115,117,119,121,123,125,-1,-1,127,129,131,133,135,137,139,141,143,-1,-1,-1,145,147,149,151,153,-1,155,157,159,161,163,-1,165,167,169,171,173,175,177,179,181,183,185,187,-1,-1,189,191,193,-1,195,197,199,201,203,-1,-1,-1,205,-1,207,-1,-1,209,-1,211,213,215,217,219,221,223,225,227,-1,-1,229,-1,231,233,235,-1,-1,237,239,-1,-1,-1,-1,-1,-1,-1,-1,-1,-1,-1,-1,241,-1,-1,-1,-1,-1,-1,-1,-1,-1,-1,-1,-1,-1,-1,-1,-1,-1,-1,-1,-1,-1,-1,-1,-1,-1,-1,-1,-1,-1,-1,-1,-1,-1,-1,-1,-1,-1,-1,-1,-1,-1,-1,-1,-1,-1,-1,-1,-1,-1,-1,-1,-1,-1,-1,-1,-1,-1,-1,-1,-1,-1,-1,-1,-1,-1,-1,-1,-1,-1,-1,-1,-1,-1,-1,-1,-1],"loss_changes":[6.390786E3,5.4901E2,1.1137554E3,4.6795218E2,1.6758143E3,1.2198208E2,5.273242E1,2.8158426E2,8.073031E2,3.4770468E2,1.6142627E2,6.0452705E1,3.2941208E1,3.459961E0,1.7620831E2,2.3920377E2,8.848503E2,9.423842E1,1.23925415E2,2.0059097E1,8.993794E1,1.0671106E2,1.4416504E1,1.6483265E1,3.523507E1,0E0,8.360733E0,4.069336E0,5.3806274E1,1.3006592E0,7.9250946E0,1.7637845E2,3.4053897E2,5.3107567E1,6.942981E1,1.2998154E1,1.0306465E1,1.0517456E1,1.2495764E2,7.70549E0,8.996396E0,1.4960985E1,1.8693085E1,1.7674866E0,7.35531E1,0E0,0E0,1.0333656E1,2.189247E0,0E0,7.415459E0,0E0,0E0,0E0,2.6524414E1,0E0,5.0242243E0,0E0,0E0,5.500367E0,1.6947007E0,1.2263966E2,2.641729E2,6.786774E1,5.971115E1,1.7868414E1,6.6876984E-1,0E0,0E0,1.0966404E1,6.74261E1,5.6431623E0,4.6047516E0,5.5141296E0,2.082611E0,0E0,0E0,4.161789E0,5.2528687E0,1.6786804E0,6.0844326E-1,9.407774E0,6.1000686E0,4.779892E0,9.698776E0,4.1723633E-1,0E0,0E0,0E0,1.8061867E0,5.420315E0,2.2694063E0,1.0884392E0,2.3842466E0,0E0,7.2634277E0,1.3720087E0,2.3107224E0,3.984341E-1,1.8394833E0,0E0,6.454329E-1,1.2521994E-1,2.202455E1,3.0021027E1,1.9082134E1,4.316861E1,4.159084E1,1.326105E1,1.7997803E1,4.605487E1,1.0684883E1,1.100052E1,0E0,0E0,8.266571E0,1.3288236E1,1.8871164E0,0E0,2.2179527E0,6.462569E0,9.4770145E-1,1.4722595E0,1.1103973E0,0E0,0E0,0E0,1.3207397E0,0E0,2.4795456E0,0E0,0E0,4.7199917E-1,0E0,4.3902206E-1,5.596985E0,2.7956638E0,1.7981453E0,1.6805611E0,6.3881207E-1,1.7472153E0,2.374054E0,1.5730759E1,0E0,0E0,6.128082E-1,0E0,2.9515915E0,1.263507E0,1.4283372E0,0E0,0E0,4.9669707E-1,6.0547394E-1,0E0,0E0,0E0,0E0,0E0,0E0,0E0,0E0,0E0,0E0,0E0,0E0,2.2114451E-1,0E0,0E0,0E0,0E0,0E0,0E0,0E0,0E0,0E0,0E0,0E0,0E0,0E0,0E0,0E0,0E0,0E0,0E0,0E0,0E0,0E0,0E0,0E0,0E0,0E0,0E0,0E0,0E0,0E0,0E0,0E0,0E0,0E0,0E0,0E0,0E0,0E0,0E0,0E0,0E0,0E0,0E0,0E0,0E0,0E0,0E0,0E0,0E0,0E0,0E0,0E0,0E0,0E0,0E0,0E0,0E0,0E0,0E0,0E0,0E0,0E0,0E0,0E0,0E0,0E0,0E0,0E0,0E0,0E0,0E0,0E0,0E0,0E0,0E0,0E0,0E0],"parents":[2147483647,0,0,1,1,2,2,3,3,4,4,5,5,6,6,7,7,8,8,9,9,10,10,11,11,12,12,13,13,14,14,15,15,16,16,17,17,18,18,19,19,20,20,21,21,22,22,23,23,24,24,26,26,27,27,28,28,29,29,30,30,31,31,32,32,33,33,34,34,35,35,36,36,37,37,38,38,39,39,40,40,41,41,42,42,43,43,44,44,47,47,48,48,50,50,54,54,56,56,59,59,60,60,61,61,62,62,63,63,64,64,65,65,66,66,69,69,70,70,71,71,72,72,73,73,74,74,77,77,78,78,79,79,80,80,81,81,82,82,83,83,84,84,85,85,89,89,90,90,91,91,92,92,93,93,95,95,96,96,97,97,98,98,99,99,101,101,102,102,103,103,104,104,105,105,106,106,107,107,108,108,109,109,110,110,111,111,112,112,115,115,116,116,117,117,119,119,120,120,121,121,122,122,123,123,127,127,129,129,132,132,134,134,135,135,136,136,137,137,138,138,139,139,140,140,141,141,142,142,145,145,147,147,148,148,149,149,152,152,153,153,166,166],"right_children":[2,4,6,8,10,12,14,16,18,20,22,24,26,28,30,32,34,36,38,40,42,44,46,48,50,-1,52,54,56,58,60,62,64,66,68,70,72,74,76,78,80,82,84,86,88,-1,-1,90,92,-1,94,-1,-1,-1,96,-1,98,-1,-1,100,102,104,106,108,110,112,114,-1,-1,116,118,120,122,124,126,-1,-1,128,130,132,134,136,138,140,142,144,-1,-1,-1,146,148,150,152,154,-1,156,158,160,162,164,-1,166,168,170,172,174,176,178,180,182,184,186,188,-1,-1,190,192,194,-1,196,198,200,202,204,-1,-1,-1,206,-1,208,-1,-1,210,-1,212,214,216,218,220,222,224,226,228,-1,-1,230,-1,232,234,236,-1,-1,238,240,-1,-1,-1,-1,-1,-1,-1,-1,-1,-1,-1,-1,242,-1,-1,-1,-1,-1,-1,-1,-1,-1,-1,-1,-1,-1,-1,-1,-1,-1,-1,-1,-1,-1,-1,-1,-1,-1,-1,-1,-1,-1,-1,-1,-1,-1,-1,-1,-1,-1,-1,-1,-1,-1,-1,-1,-1,-1,-1,-1,-1,-1,-1,-1,-1,-1,-1,-1,-1,-1,-1,-1,-1,-1,-1,-1,-1,-1,-1,-1,-1,-1,-1,-1,-1,-1,-1,-1,-1],"split_conditions":[1E0,7.8E-1,1E0,8E-1,8E-1,6.9E-1,8.4E-1,8.9E-1,7.1E-1,4E-1,1E0,7.8E-1,2E-1,9E-1,9E-1,8E-1,8E-1,4.7E-1,8.9E-1,7E-1,6E-1,8.9E-1,8E-1,4E-1,1E-1,-2.1900887E-2,9E-1,8.4E-1,8.3E-1,8E-1,9.2E-1,5.2E-1,5.3E-1,6E-1,9E-1,8E-1,5.4E-1,9E-1,9E-1,3.9E-1,5.1E-1,8E-1,3E-1,9E-1,9E-1,1.0693438E-1,2.1903668E-1,4.3E-1,2E-1,1.3656084E-1,6E-1,7.527589E-2,1.8010096E-1,-1.3933548E-1,9E-1,-1.3923787E-1,8.6E-1,-1.3940296E-1,-1.0825958E-1,1E0,1E0,7.0333E0,7E-1,4.1E-1,6.2E-1,9E-1,6.9039E0,1.0005423E-1,2.0399542E-1,7E-1,4.2E-1,5E-1,4.2E-1,8.2E-1,7.8E-1,9.824965E-2,1.9109212E-1,3E-1,3.9E-1,4E-1,2E-1,5.5E-1,5E-1,8.1E-1,8.1E-1,2.1E-1,1.0347717E-1,1.1449685E-1,1.9680737E-1,3.1E-1,6E-1,6.9E-1,3.1E-1,2E-1,3.876377E-2,8.1E-1,8.04667E1,2E-1,6E-2,8.9E-1,-8.41886E-3,1E-1,5.1E-1,1E-1,4E-1,4E-1,1E0,4E-1,6E-1,6.1E-1,9E-1,4E-1,4.5E-1,3.0404592E-2,6.713037E-2,4E-1,5.3E-1,2.6E-1,1.3687335E-1,7.99167E1,7.3E-1,7.99167E1,5.9483E0,6E-1,7.667949E-2,7.292237E-2,9.712174E-2,2.2E-1,-3.82852E-2,4E-1,5.1924787E-3,-4.2403605E-2,4E-1,-8.2446093E-4,5.4E-1,4E-1,8.02525E1,9.3E-1,8.4E-1,7.3E-1,9.3E-1,7E-1,8E-1,3.8900435E-2,8.470025E-2,2E-1,-1.861293E-2,3.2E-1,8E-1,2.5E-1,3.7024003E-2,9.747074E-3,8.9E-1,9.3E-1,-2.7753416E-2,-1.3086613E-1,-4.5663487E-2,7.511166E-3,-3.5203766E-2,-2.0457745E-2,-8.806613E-2,-1.5016993E-2,4.3044765E-3,-8.465424E-2,-2.8926108E-2,-1.853573E-2,4.9E-1,2.4272718E-2,8.927782E-3,-2.1476135E-2,6.3255797E-3,-4.091382E-2,-2.1412684E-2,-4.9965266E-2,1.5158823E-4,5.6965303E-2,1.2319137E-1,2.0447074E-2,-3.1963136E-2,7.0553184E-3,3.7124258E-2,2.7645815E-2,5.727873E-2,7.099753E-2,1.7177337E-1,-4.1265406E-2,8.4415026E-4,-1.6637443E-2,1.8701062E-2,-2.887067E-2,-8.037981E-3,-1.9883705E-2,2.9866813E-2,-6.543797E-2,-1.7380474E-2,-1.4735328E-2,1.03261275E-2,8.475631E-3,8.705528E-2,8.867757E-4,2.2936108E-2,4.8491447E-3,4.210938E-2,4.4806607E-2,6.168468E-2,-8.850586E-2,-3.9419882E-2,-7.49861E-2,-4.337838E-2,-2.6337234E-2,-1.0430087E-2,3.2923103E-3,2.6341287E-2,9.400683E-3,5.167014E-2,2.3862656E-2,5.690815E-2,-2.0067334E-2,-1.2098256E-3,-7.8058913E-3,1.8600348E-2,2.6283769E-2,6.36905E-3,4.1918304E-2,5.961911E-2,4.9049973E-2,7.2037324E-2,6.0635664E-2,1.5971677E-1,-8.081852E-2,-5.3348202E-2,-4.93085E-2,-1.37332175E-2,-1.3830376E-2,1.3062364E-2,1.5290074E-2,-2.4836674E-2,-2.702128E-2,-3.818376E-3,-1.1831697E-3,1.3794049E-2,-9.0341E-3,5.10331E-3],"split_indices":[11,2,8,7,6,0,2,0,3,6,6,3,4,7,6,6,4,3,3,7,6,2,2,6,4,0,4,1,3,6,2,0,2,4,4,4,3,7,7,3,3,4,5,6,6,0,0,3,4,0,7,0,0,0,5,0,3,0,0,6,6,9,4,2,1,6,9,0,0,6,0,4,2,3,3,0,0,6,0,3,4,3,6,2,1,3,0,0,0,0,7,2,1,5,0,2,10,5,0,2,0,0,3,5,7,4,4,5,7,2,5,4,2,0,0,4,2,0,0,10,0,10,9,6,0,0,0,0,0,4,0,0,4,0,1,5,10,2,2,1,2,6,5,0,0,0,0,0,7,0,0,0,2,3,0,0,0,0,0,0,0,0,0,0,0,0,1,0,0,0,0,0,0,0,0,0,0,0,0,0,0,0,0,0,0,0,0,0,0,0,0,0,0,0,0,0,0,0,0,0,0,0,0,0,0,0,0,0,0,0,0,0,0,0,0,0,0,0,0,0,0,0,0,0,0,0,0,0,0,0,0,0,0,0,0,0,0,0,0,0,0,0,0],"split_type":[0,0,0,0,0,0,0,0,0,0,0,0,0,0,0,0,0,0,0,0,0,0,0,0,0,0,0,0,0,0,0,0,0,0,0,0,0,0,0,0,0,0,0,0,0,0,0,0,0,0,0,0,0,0,0,0,0,0,0,0,0,0,0,0,0,0,0,0,0,0,0,0,0,0,0,0,0,0,0,0,0,0,0,0,0,0,0,0,0,0,0,0,0,0,0,0,0,0,0,0,0,0,0,0,0,0,0,0,0,0,0,0,0,0,0,0,0,0,0,0,0,0,0,0,0,0,0,0,0,0,0,0,0,0,0,0,0,0,0,0,0,0,0,0,0,0,0,0,0,0,0,0,0,0,0,0,0,0,0,0,0,0,0,0,0,0,0,0,0,0,0,0,0,0,0,0,0,0,0,0,0,0,0,0,0,0,0,0,0,0,0,0,0,0,0,0,0,0,0,0,0,0,0,0,0,0,0,0,0,0,0,0,0,0,0,0,0,0,0,0,0,0,0,0,0,0,0,0,0,0,0,0,0,0,0,0,0,0,0,0,0,0,0],"sum_hessian":[5.767E3,4.638E3,1.129E3,3.681E3,9.57E2,1.89E2,9.4E2,2.747E3,9.34E2,6.25E2,3.32E2,1.71E2,1.8E1,7.78E2,1.62E2,2.453E3,2.94E2,5.03E2,4.31E2,2.09E2,4.16E2,2.52E2,8E1,1.13E2,5.8E1,3E0,1.5E1,7.08E2,7E1,1.19E2,4.3E1,1.47E3,9.83E2,2E2,9.4E1,2.91E2,2.12E2,2.63E2,1.68E2,1.58E2,5.1E1,1.98E2,2.18E2,1.28E2,1.24E2,6E0,7.4E1,8.6E1,2.7E1,6E0,5.2E1,5E0,1E1,6.17E2,9.1E1,5.5E1,1.5E1,9.2E1,2.7E1,1.7E1,2.6E1,1.258E3,2.12E2,6.01E2,3.82E2,1.77E2,2.3E1,2.5E1,6.9E1,2.73E2,1.8E1,6.5E1,1.47E2,1.68E2,9.5E1,1.11E2,5.7E1,3.6E1,1.22E2,3.5E1,1.6E1,1.09E2,8.9E1,1.11E2,1.07E2,5.5E1,7.3E1,5.4E1,7E1,3.3E1,5.3E1,1.3E1,1.4E1,3.1E1,2.1E1,8.5E1,6E0,6E0,9E0,9E0,8E0,1.7E1,9E0,4.6E2,7.98E2,9E1,1.22E2,2.64E2,3.37E2,2.22E2,1.6E2,9E1,8.7E1,4E0,1.9E1,2.21E2,5.2E1,1.1E1,7E0,5.5E1,1E1,3.3E1,1.14E2,8.6E1,8.2E1,3.4E1,6.1E1,2.6E1,1E1,1.17E2,5E0,1.3E1,2.2E1,4E0,1.2E1,7.5E1,3.4E1,5.4E1,3.5E1,1.9E1,9.2E1,8.8E1,1.9E1,3E0,5.2E1,3E1,3E0,3.2E1,2.1E1,7E0,6E0,4E0,1E1,2.6E1,5E0,8.1E1,4E0,3E0,3E0,3E0,3E0,4E0,5E0,5E0,4E0,6E0,1.1E1,5E0,4E0,8.7E1,3.73E2,4.06E2,3.92E2,6.3E1,2.7E1,8.6E1,3.6E1,4.5E1,2.19E2,2.96E2,4.1E1,1.37E2,8.5E1,1.48E2,1.2E1,7.1E1,1.9E1,4.8E1,3.9E1,1.5E2,7.1E1,2.8E1,2.4E1,7E0,4E0,1E1,4.5E1,6E0,4E0,6E0,2.7E1,3E0,1.11E2,3.2E1,5.4E1,2.2E1,4E0,8E0,1.09E2,1E1,1.2E1,3E0,9E0,6.7E1,8E0,1.2E1,2.2E1,3.4E1,2E1,7E0,2.8E1,1.2E1,7E0,6E1,3.2E1,2.7E1,6.1E1,1.1E1,8E0,1.3E1,1.7E1,2.3E1,9E0,1.6E1,5E0,4E0,3E0,6E0,4E0,1.2E1,1.4E1,3E0,8E0],"tree_param":{"num_deleted":"0","num_feature":"12","num_nodes":"243","size_leaf_vector":"1"}},{"base_weights":[1.0295866E-2,5.097551E-1,-2.041127E0,2.277149E-2,7.3947173E-1,1.5166543E-1,-2.4770503E0,-3.2059947E-1,1.7979475E0,3.1104955E-1,1.5927624E0,-1.665276E-1,2.1406577E0,-2.5762951E0,-1.980235E0,-5.6815785E-1,5.123524E-1,-1.0557941E0,2.3207135E0,-1.4600302E-2,9.540555E-1,1.02709E0,2.7743263E0,-5.9924364E-1,5.2983505E-1,4.622021E-1,1.5804026E-1,-2.5892267E0,-1.8842901E0,-2.5250945E0,-3.763451E-1,-1.0240796E0,-4.141284E-1,-4.274604E-1,1.4164705E0,-1.3079916E0,-6.6731524E-1,1.4210052E0,3.047072E0,-4.3730822E-1,2.145385E-1,-4.1780598E-3,1.8776015E0,8.1224155E-1,2.0120418E0,2.0569227E0,2.0116334E-1,8.1546776E-2,-7.8986305E-1,1.8658844E-1,2.1354928E0,-3.0624224E-2,5.8190323E-2,-1.3096878E-1,-2.2185469E0,-1.2366952E-1,-1.46928895E-2,-1.3278866E-1,-1.011728E-1,-8.200358E-1,2.5835764E-2,-8.707195E-2,-8.2341594E-1,-8.918128E-1,-1.8229721E-1,-9.9740785E-1,3.246555E-2,1.0177859E0,1.9113823E0,-3.0693967E-2,-7.140672E-2,-3.838264E-2,-1.7771056E-2,1.0474945E0,1.7493486E0,1.9766291E0,1.9548143E-1,-5.130831E-1,4.2798603E-1,1.21213414E-1,8.7339795E-1,-4.1476077E-1,5.572594E-1,1.4201239E0,2.4912705E0,4.8550558E-1,1.2270114E0,1.5685198E0,2.9040997E0,1.6628679E0,2.6657379E0,-1.0169637E-1,3.0884255E-2,-1.3302486E0,-5.579555E-1,-1.1502635E-1,6.900041E-1,1.3070823E-1,5.1912665E-2,-2.4495175E0,1.2144906E-2,-1.1936649E0,-1.1038411E-1,-1.05914086E-1,1.43053E-2,-1.146061E0,-3.8055784E-1,1.66367E0,-1.0861114E0,-3.4174117E-1,1.7369926E-1,-1.1665057E0,-6.7401946E-1,-2.1611525E-1,2.56599E-1,8.018044E-1,6.323165E-2,1.6550307E0,1.3948797E-1,3.7809044E-2,1.2077612E0,6.9036655E-2,9.7162195E-2,5.9902143E-2,2.2893887E0,-5.91572E-1,-1.871892E-1,-8.561564E-1,2.873976E0,-1.7033702E-1,3.1168345E-1,3.2249546E-1,1.6864641E0,-5.491357E-1,-1.6637884E-1,2.535396E-1,7.523403E-1,4.0028315E-2,1.5081211E0,8.939819E-2,1.867266E-1,4.302051E-1,2.0501099E0,9.656125E-1,1.7296966E0,6.432932E-1,1.6803247E0,9.99948E-2,1.8767594E-1,1.4224068E0,1.84761E0,1.006902E-1,1.886046E-1,-3.2963762E-1,3.0358812E-1,-7.309398E-2,-3.5682376E-2,-6.5007126E-1,-1.9617367E-1,5.405321E-2,-2.631113E-2,1.9588973E-2,4.102249E-2,-1.2847318E-1,-8.084152E-2,1.328097E-2,-1.2218291E-2,-8.358775E-2,-2.7252568E-2,-1.4805538E-2,3.0137014E-3,-1.7294256E-2,3.4607757E-2,-7.4045144E-2,-2.9494539E-2,-2.8719816E-2,-2.1566688E-3,3.5743218E-2,1.2138118E-1,-6.993287E-2,-4.0084053E-2,-2.0292308E-2,1.0187026E-2,-7.026271E-3,2.4699364E-2,-6.408726E-2,-4.142832E-2,-3.8285535E-2,-1.35663645E-2,-3.158691E-2,-6.699925E-3,-1.1563341E-2,1.6438864E-2,3.0999267E-2,4.6240635E-2,5.5595435E-2,8.6425476E-2,3.529377E-2,7.041727E-2,8.49882E-2,1.4241974E-1,-2.0842908E-2,-3.9594177E-2,-2.2777537E-2,-2.8269405E-3,-6.376032E-2,-1.1303843E-2,7.55122E-2,1.7319001E-1,-1.4164249E-2,2.9432029E-2,5.1431907E-3,2.7394429E-2,-2.626655E-2,2.476637E-2,6.0609337E-2,1.08538605E-1,-3.2141503E-2,-5.4267114E-3,-1.2214872E-2,1.21786175E-2,8.911735E-3,2.8296977E-2,2.891256E-2,5.8743924E-2,6.756038E-2,8.490022E-2,8.19134E-3,3.195593E-2,6.843323E-2,1.2970558E-1,4.1427374E-2,5.8924783E-2,7.100993E-2,1.028926E-1,1.0204318E-2,4.8764225E-2,5.995459E-2,9.08648E-2,6.0690828E-2,8.1255265E-2,9.473331E-2,2.8111244E-2,-2.5140686E-2,6.6857814E-4,4.560408E-2,-1.904012E-2,-3.5477597E-2,-1.6665472E-2,-1.3306967E-2,1.3891965E-3,1.8361976E-2,-2.130267E-3,5.59519E-3,-4.026413E-3],"categories":[],"categories_nodes":[],"categories_segments":[],"categories_sizes":[],"default_left":[0,0,0,0,0,0,0,0,0,0,0,0,0,0,0,0,0,0,0,0,0,0,0,0,0,0,0,0,0,0,0,0,0,0,0,0,0,0,0,0,0,0,0,0,0,0,0,0,0,0,0,0,0,0,0,0,0,0,0,0,0,0,0,0,0,0,0,0,0,0,0,0,0,0,0,0,0,0,0,0,0,0,0,0,0,0,0,0,0,0,0,0,0,0,0,0,0,0,0,0,0,0,0,0,0,0,0,0,0,0,0,0,0,0,0,0,0,0,0,0,0,0,0,0,0,0,0,0,0,0,0,0,0,0,0,0,0,0,0,0,0,0,0,0,0,0,0,0,0,0,0,0,0,0,0,0,0,0,0,0,0,0,0,0,0,0,0,0,0,0,0,0,0,0,0,0,0,0,0,0,0,0,0,0,0,0,0,0,0,0,0,0,0,0,0,0,0,0,0,0,0,0,0,0,0,0,0,0,0,0,0,0,0,0,0,0,0,0,0,0,0,0,0,0,0,0,0,0,0,0,0,0,0,0,0,0,0,0,0,0,0,0,0,0,0,0,0,0,0,0,0,0,0,0,0],"id":4,"left_children":[1,3,5,7,9,11,13,15,17,19,21,23,25,27,29,31,33,35,37,39,41,43,45,47,49,51,-1,53,55,57,59,61,63,65,67,69,71,73,75,77,79,81,83,85,87,89,-1,91,93,95,97,-1,-1,-1,99,-1,-1,-1,-1,101,103,-1,105,107,109,111,113,115,117,-1,-1,-1,-1,119,121,123,-1,125,127,129,131,133,135,137,139,141,143,145,147,149,151,153,-1,155,157,159,161,-1,-1,163,165,167,169,171,-1,173,175,177,179,181,183,185,187,189,191,193,-1,195,-1,-1,197,-1,-1,-1,199,201,203,205,207,209,211,213,215,217,219,221,223,-1,225,-1,-1,227,229,231,233,235,237,-1,-1,239,241,-1,-1,243,245,-1,-1,247,249,251,-1,-1,-1,-1,-1,-1,-1,-1,-1,-1,-1,-1,253,-1,-1,-1,-1,-1,-1,-1,-1,-1,-1,-1,-1,-1,-1,-1,-1,-1,-1,-1,-1,-1,-1,-1,-1,-1,-1,-1,-1,-1,-1,-1,-1,-1,-1,-1,-1,-1,-1,-1,-1,-1,-1,-1,-1,-1,-1,-1,-1,-1,-1,-1,-1,-1,-1,-1,-1,-1,-1,-1,-1,-1,-1,-1,-1,-1,-1,-1,-1,-1,-1,-1,-1,-1,-1,-1,-1,-1,-1,-1,-1,-1,-1],"loss_changes":[5.902749E3,5.182687E2,1.0786182E3,9.063587E2,1.1503146E3,1.19338585E2,4.129541E1,2.5722156E2,3.6198334E2,4.3911484E2,7.0028467E2,4.9433846E1,4.3058144E1,2.1098633E0,1.397467E2,6.706253E1,2.4362021E2,2.8501434E0,1.289862E2,1.3501811E2,6.2391364E2,1.4924738E2,2.9636255E2,1.3171368E1,3.4323143E1,9.0068655E0,0E0,2.7270508E0,1.6137806E1,2.4925537E0,7.5158315E0,3.340149E1,7.9571754E1,3.6993225E1,2.6862427E1,9.5793533E-1,2.5917006E-1,9.573074E0,9.5683716E1,3.2347687E1,5.5479393E1,8.022035E1,9.724768E1,7.895462E1,4.569214E1,4.7866882E1,0E0,2.3224206E0,9.158024E0,8.126761E0,3.0632324E0,0E0,0E0,0E0,3.300412E1,0E0,0E0,0E0,0E0,5.1711683E0,8.1898564E-1,0E0,2.6855072E1,1.1849069E2,2.7645441E1,2.6588593E0,4.456962E0,3.41111E0,9.793961E0,0E0,0E0,0E0,0E0,1.2343521E0,7.475891E-1,9.919739E0,0E0,1.142543E1,1.2810056E2,4.408967E1,4.9623177E1,6.6172714E0,8.518993E0,1.013269E1,1.2623065E2,2.7670738E1,3.2231354E1,7.918762E0,2.3983307E1,3.3690796E0,5.2990356E1,1.762933E0,0E0,8.235016E-1,1.7720432E0,2.39229E0,4.5660686E-1,0E0,0E0,1.6385193E0,5.200408E-1,3.1200523E0,2.714139E-1,5.51509E-1,0E0,1.9611633E1,5.338503E0,1.0586918E1,1.834729E1,1.1831966E1,1.5266419E1,4.957428E-1,6.7840195E-1,1.2122728E0,1.5549946E0,4.7779846E-1,0E0,1.5327454E-1,0E0,0E0,1.8246536E0,0E0,0E0,0E0,7.024124E0,1.2373871E1,3.094721E0,6.840643E0,6.0298843E0,2.7084396E1,2.3619282E1,1.0224354E1,7.7049637E0,5.296875E0,2.3593879E0,1.2871196E0,5.8673973E0,0E0,3.0985718E0,0E0,0E0,1.7703308E1,5.2731705E-1,4.0423126E0,5.9134827E0,1.4048991E0,2.896347E0,0E0,0E0,6.911087E-1,3.3502197E0,0E0,0E0,7.1953523E-1,3.262453E0,0E0,0E0,6.113548E-1,2.1109587E-1,7.724497E-1,0E0,0E0,0E0,0E0,0E0,0E0,0E0,0E0,0E0,0E0,0E0,0E0,1.0690656E-1,0E0,0E0,0E0,0E0,0E0,0E0,0E0,0E0,0E0,0E0,0E0,0E0,0E0,0E0,0E0,0E0,0E0,0E0,0E0,0E0,0E0,0E0,0E0,0E0,0E0,0E0,0E0,0E0,0E0,0E0,0E0,0E0,0E0,0E0,0E0,0E0,0E0,0E0,0E0,0E0,0E0,0E0,0E0,0E0,0E0,0E0,0E0,0E0,0E0,0E0,0E0,0E0,0E0,0E0,0E0,0E0,0E0,0E0,0E0,0E0,0E0,0E0,0E0,0E0,0E0,0E0,0E0,0E0,0E0,0E0,0E0,0E0,0E0,0E0,0E0,0E0,0E0,0E0,0E0,0E0,0E0,0E0],"parents":[2147483647,0,0,1,1,2,2,3,3,4,4,5,5,6,6,7,7,8,8,9,9,10,10,11,11,12,12,13,13,14,14,15,15,16,16,17,17,18,18,19,19,20,20,21,21,22,22,23,23,24,24,25,25,27,27,28,28,29,29,30,30,31,31,32,32,33,33,34,34,35,35,36,36,37,37,38,38,39,39,40,40,41,41,42,42,43,43,44,44,45,45,47,47,48,48,49,49,50,50,54,54,59,59,60,60,62,62,63,63,64,64,65,65,66,66,67,67,68,68,73,73,74,74,75,75,77,77,78,78,79,79,80,80,81,81,82,82,83,83,84,84,85,85,86,86,87,87,88,88,89,89,90,90,91,91,93,93,94,94,95,95,96,96,99,99,100,100,101,101,102,102,103,103,105,105,106,106,107,107,108,108,109,109,110,110,111,111,112,112,113,113,114,114,115,115,117,117,120,120,124,124,125,125,126,126,127,127,128,128,129,129,130,130,131,131,132,132,133,133,134,134,135,135,136,136,138,138,141,141,142,142,143,143,144,144,145,145,146,146,149,149,150,150,153,153,154,154,157,157,158,158,159,159,172,172],"right_children":[2,4,6,8,10,12,14,16,18,20,22,24,26,28,30,32,34,36,38,40,42,44,46,48,50,52,-1,54,56,58,60,62,64,66,68,70,72,74,76,78,80,82,84,86,88,90,-1,92,94,96,98,-1,-1,-1,100,-1,-1,-1,-1,102,104,-1,106,108,110,112,114,116,118,-1,-1,-1,-1,120,122,124,-1,126,128,130,132,134,136,138,140,142,144,146,148,150,152,154,-1,156,158,160,162,-1,-1,164,166,168,170,172,-1,174,176,178,180,182,184,186,188,190,192,194,-1,196,-1,-1,198,-1,-1,-1,200,202,204,206,208,210,212,214,216,218,220,222,224,-1,226,-1,-1,228,230,232,234,236,238,-1,-1,240,242,-1,-1,244,246,-1,-1,248,250,252,-1,-1,-1,-1,-1,-1,-1,-1,-1,-1,-1,-1,254,-1,-1,-1,-1,-1,-1,-1,-1,-1,-1,-1,-1,-1,-1,-1,-1,-1,-1,-1,-1,-1,-1,-1,-1,-1,-1,-1,-1,-1,-1,-1,-1,-1,-1,-1,-1,-1,-1,-1,-1,-1,-1,-1,-1,-1,-1,-1,-1,-1,-1,-1,-1,-1,-1,-1,-1,-1,-1,-1,-1,-1,-1,-1,-1,-1,-1,-1,-1,-1,-1,-1,-1,-1,-1,-1,-1,-1,-1,-1,-1,-1,-1],"split_conditions":[1E0,5E-1,1E0,6.9E-1,6.4E-1,6.2E-1,8.4E-1,7E-1,4E-1,7E-1,9E-1,7.8E-1,6.9389E0,1E0,9E-1,3E-1,6.6E-1,2.6E-1,9E-1,4.2E-1,7.2E-1,8E-1,8.9E-1,8E-1,7E-1,2E-1,1.5804026E-1,9E-1,7.9E-1,8E-1,9.2E-1,4E-1,5.4E-1,4E-1,8.6E-1,7.6E-1,8E-1,9E-1,8.7E-1,8E-1,6.2E-1,5.1E-1,8.9E-1,7E-1,7.9E-1,8E-1,2.0116334E-1,8.4E-1,4E-1,6E-1,1E-1,-3.0624224E-2,5.8190323E-2,-1.3096878E-1,9E-1,-1.2366952E-1,-1.46928895E-2,-1.3278866E-1,-1.011728E-1,1E0,1E0,-8.707195E-2,2.2E-1,1E-1,6E-1,3.3E-1,5.2E-1,7.8E-1,9E-1,-3.0693967E-2,-7.140672E-2,-3.838264E-2,-1.7771056E-2,8E-1,8E-1,7.4E-1,1.9548143E-1,3.4E-1,5.2E-1,8E-1,7E-1,2E-1,6.2E-1,8E-1,9E-1,8E-1,8.6E-1,4.6E-1,9E-1,6E-1,1E0,5.4E-1,3.0884255E-2,2.6E-1,4E-1,1E0,8.6E-1,1.3070823E-1,5.1912665E-2,8E-1,9.7E-1,8.9E-1,6.4333E0,9E-2,1.43053E-2,6E-1,3.5E-1,7.2E-1,3.7E-1,4.3E-1,8.2E-1,2.7E-1,9.4E-1,2E-1,2E-1,7.1E-1,6.323165E-2,2E-1,1.3948797E-1,3.7809044E-2,7.7E-1,6.9036655E-2,9.7162195E-2,5.9902143E-2,1E0,7E-1,5E-1,9E-2,8.3E-1,8.9E-1,5.1E-1,7E-1,8.5E-1,4.4E-1,9.5E-1,8.10167E1,9E-1,4.0028315E-2,9E-1,8.939819E-2,1.867266E-1,8.2E-1,9E-1,7.9E-1,8E-1,7E-1,7E-1,9.99948E-2,1.8767594E-1,7.2E-1,7.9E-1,1.006902E-1,1.886046E-1,2.2E-1,2.5E-1,-7.309398E-2,-3.5682376E-2,3.7E-1,5.5E-1,2E-1,-2.631113E-2,1.9588973E-2,4.102249E-2,-1.2847318E-1,-8.084152E-2,1.328097E-2,-1.2218291E-2,-8.358775E-2,-2.7252568E-2,-1.4805538E-2,3.0137014E-3,-1.7294256E-2,6E-1,-7.4045144E-2,-2.9494539E-2,-2.8719816E-2,-2.1566688E-3,3.5743218E-2,1.2138118E-1,-6.993287E-2,-4.0084053E-2,-2.0292308E-2,1.0187026E-2,-7.026271E-3,2.4699364E-2,-6.408726E-2,-4.142832E-2,-3.8285535E-2,-1.35663645E-2,-3.158691E-2,-6.699925E-3,-1.1563341E-2,1.6438864E-2,3.0999267E-2,4.6240635E-2,5.5595435E-2,8.6425476E-2,3.529377E-2,7.041727E-2,8.49882E-2,1.4241974E-1,-2.0842908E-2,-3.9594177E-2,-2.2777537E-2,-2.8269405E-3,-6.376032E-2,-1.1303843E-2,7.55122E-2,1.7319001E-1,-1.4164249E-2,2.9432029E-2,5.1431907E-3,2.7394429E-2,-2.626655E-2,2.476637E-2,6.0609337E-2,1.08538605E-1,-3.2141503E-2,-5.4267114E-3,-1.2214872E-2,1.21786175E-2,8.911735E-3,2.8296977E-2,2.891256E-2,5.8743924E-2,6.756038E-2,8.490022E-2,8.19134E-3,3.195593E-2,6.843323E-2,1.2970558E-1,4.1427374E-2,5.8924783E-2,7.100993E-2,1.028926E-1,1.0204318E-2,4.8764225E-2,5.995459E-2,9.08648E-2,6.0690828E-2,8.1255265E-2,9.473331E-2,2.8111244E-2,-2.5140686E-2,6.6857814E-4,4.560408E-2,-1.904012E-2,-3.5477597E-2,-1.6665472E-2,-1.3306967E-2,1.3891965E-3,1.8361976E-2,-2.130267E-3,5.59519E-3,-4.026413E-3],"split_indices":[11,6,8,0,2,0,2,7,4,7,6,3,9,7,6,7,3,1,4,2,3,5,2,4,7,4,0,1,3,6,2,4,3,3,3,0,7,0,0,4,1,3,3,6,1,2,0,2,3,7,4,0,0,0,5,0,0,0,0,6,6,0,0,4,7,3,3,3,7,0,0,0,0,4,4,0,0,1,0,6,5,4,3,7,7,3,2,1,5,5,6,3,0,0,6,4,3,0,0,5,1,2,9,0,0,2,0,1,3,0,3,0,1,4,4,3,0,4,0,0,0,0,0,0,4,5,5,0,0,0,2,6,1,3,0,10,7,0,7,0,0,2,7,2,6,6,6,0,0,2,3,0,0,0,0,0,0,0,3,4,0,0,0,0,0,0,0,0,0,0,0,0,5,0,0,0,0,0,0,0,0,0,0,0,0,0,0,0,0,0,0,0,0,0,0,0,0,0,0,0,0,0,0,0,0,0,0,0,0,0,0,0,0,0,0,0,0,0,0,0,0,0,0,0,0,0,0,0,0,0,0,0,0,0,0,0,0,0,0,0,0,0,0,0,0,0,0,0,0,0,0,0,0,0,0],"split_type":[0,0,0,0,0,0,0,0,0,0,0,0,0,0,0,0,0,0,0,0,0,0,0,0,0,0,0,0,0,0,0,0,0,0,0,0,0,0,0,0,0,0,0,0,0,0,0,0,0,0,0,0,0,0,0,0,0,0,0,0,0,0,0,0,0,0,0,0,0,0,0,0,0,0,0,0,0,0,0,0,0,0,0,0,0,0,0,0,0,0,0,0,0,0,0,0,0,0,0,0,0,0,0,0,0,0,0,0,0,0,0,0,0,0,0,0,0,0,0,0,0,0,0,0,0,0,0,0,0,0,0,0,0,0,0,0,0,0,0,0,0,0,0,0,0,0,0,0,0,0,0,0,0,0,0,0,0,0,0,0,0,0,0,0,0,0,0,0,0,0,0,0,0,0,0,0,0,0,0,0,0,0,0,0,0,0,0,0,0,0,0,0,0,0,0,0,0,0,0,0,0,0,0,0,0,0,0,0,0,0,0,0,0,0,0,0,0,0,0,0,0,0,0,0,0,0,0,0,0,0,0,0,0,0,0,0,0,0,0,0,0,0,0,0,0,0,0,0,0,0,0,0,0,0,0],"sum_hessian":[5.759E3,4.632E3,1.127E3,1.485E3,3.147E3,1.87E2,9.4E2,1.245E3,2.4E2,2.096E3,1.051E3,1.62E2,2.5E1,7.8E2,1.6E2,9.6E2,2.85E2,3.7E1,2.03E2,1.392E3,7.04E2,7.12E2,3.39E2,1E2,6.2E1,1E1,1.5E1,7.63E2,1.7E1,1.19E2,4.1E1,2.41E2,7.19E2,1.4E2,1.45E2,2.1E1,1.6E1,9.2E1,1.11E2,4.89E2,9.03E2,3.46E2,3.58E2,5.86E2,1.26E2,2.17E2,1.22E2,2.2E1,7.8E1,5.2E1,1E1,4E0,6E0,7E2,6.3E1,1.2E1,5E0,9.1E1,2.8E1,1.9E1,2.2E1,5.1E1,1.9E2,2.34E2,4.85E2,6.2E1,7.8E1,8.2E1,6.3E1,4E0,1.7E1,1.1E1,5E0,4.5E1,4.7E1,5.1E1,6E1,4.5E2,3.9E1,7.92E2,1.11E2,2E2,1.46E2,2.07E2,1.51E2,3.29E2,2.57E2,8.6E1,4E1,1.34E2,8.3E1,1.7E1,5E0,2.2E1,5.6E1,3.3E1,1.9E1,6E0,4E0,5.7E1,6E0,1.2E1,7E0,1.5E1,7E0,1.09E2,8.1E1,1.6E1,2.18E2,3.35E2,1.5E2,3.9E1,2.3E1,3.7E1,4.1E1,4.6E1,3.6E1,5.1E1,1.2E1,1.8E1,2.7E1,1.9E1,2.8E1,1.6E1,3.5E1,3.62E2,8.8E1,2.6E1,1.3E1,3.13E2,4.79E2,6.7E1,4.4E1,1.29E2,7.1E1,5.8E1,8.8E1,2.7E1,1.8E2,9.8E1,5.3E1,3.19E2,1E1,1.71E2,8.6E1,1E1,7.6E1,2.1E1,1.9E1,6.2E1,7.2E1,5.4E1,2.9E1,1.1E1,6E0,1.7E1,5E0,4.4E1,1.2E1,2.4E1,9E0,7E0,1.2E1,4.8E1,9E0,3E0,3E0,6E0,6E0,3E0,4E0,5E0,1E1,6.7E1,4.2E1,5.1E1,3E1,8E0,8E0,1.02E2,1.16E2,3E2,3.5E1,7.6E1,7.4E1,2.7E1,1.2E1,1.8E1,5E0,5E0,3.2E1,5E0,3.6E1,2.1E1,2.5E1,8E0,4.3E1,9E0,1.8E1,1.9E1,1.6E1,1.95E2,1.67E2,2.8E1,6E1,1.5E1,1.1E1,5E0,8E0,2.73E2,4E1,2.55E2,2.24E2,1.1E1,5.6E1,2.4E1,2E1,1.06E2,2.3E1,6E1,1.1E1,4.8E1,1E1,6.4E1,2.4E1,1.03E2,7.7E1,1.41E2,1.78E2,6E0,4E0,1.07E2,6.4E1,4.7E1,3.9E1,5E0,5E0,1.9E1,5.7E1,3.4E1,2.8E1,6.9E1,3E0,7E0,4E0,3E0,3E0,3.6E1,8E0,9E0,3E0,5E0,1.9E1,6E0,4E0],"tree_param":{"num_deleted":"0","num_feature":"12","num_nodes":"255","size_leaf_vector":"1"}},{"base_weights":[-3.8486382E-3,4.7202715E-1,-1.9471444E0,-2.5109325E-3,6.9259E-1,5.637716E-2,-2.3470619E0,-3.164295E-1,1.6035641E0,2.8210288E-1,1.4844439E0,-2.2704129E-1,1.9360206E0,-2.46604E0,-2.0036373E0,-5.6126493E-1,4.6745402E-1,-9.360011E-1,2.1914032E0,-2.0178124E-2,9.2284226E-1,9.635493E-1,2.555967E0,-5.6005836E-1,4.371004E-1,8.022131E-1,2.7695684E0,-2.502987E0,-2.0385802E0,-2.447736E0,-8.330456E-1,-1.018587E0,-4.2911872E-1,-4.5094237E-1,1.2827722E0,-1.082574E0,-5.6091213E-1,1.357272E0,2.8868232E0,-3.2952946E-1,2.4322033E-1,-1.07591316E-1,1.6557531E0,6.635252E-1,1.5152987E0,1.9263799E0,1.912836E-1,-1.4530565E-1,-8.62372E-1,1.6245456E-1,1.03233434E-1,-1.9931197E-2,1.2467836E0,1.5528856E-1,7.7162474E-2,-2.5265522E0,-2.135777E0,-1.2604271E-1,-3.9155033E-1,-2.5346947E0,-1.0215737E-1,-1.3543309E0,-4.9354997E-2,1.8574529E0,-1.1269108E0,-1.0186031E0,-2.3894301E-1,-9.880457E-1,-1.8232752E-2,7.6152384E-1,1.7092088E0,-6.619894E-2,-3.6035847E-2,-3.176251E-2,-1.4259294E-2,1.0306321E0,1.6682677E0,1.5968765E0,3.4737859E0,-3.9722446E-1,4.773254E-1,3.0150449E-2,5.4235876E-1,-3.9317247E-1,3.8420925E-1,1.2581547E0,2.3143384E0,5.81628E-1,2.0523076E0,1.1881905E0,1.8486027E0,1.5213375E0,2.479709E0,-3.3151276E-2,-7.019336E-1,-1.2278745E0,-5.439846E-1,-1.5363283E-1,6.696258E-1,2.8187225E-2,7.471729E-2,-1.267973E-1,-1.7234335E0,-1.2484936E-1,1.8178964E-1,-4.630521E-2,-3.1662963E-2,-1.2766847E-1,-6.2137056E-2,-9.361312E-2,-6.288212E-1,-3.6415982E-1,1.3549806E-1,4.434757E-2,1.1311817E-1,-1.3089577E0,-5.117811E-1,-1.309051E0,-5.6244844E-1,-4.180637E-1,3.905065E-2,-1.3931739E0,-8.408588E-1,-2.5406003E-1,2.0078357E-1,3.4261614E-1,8.4801847E-1,1.459988E0,1.3101052E-1,1.769306E-2,1.1027747E0,6.5765604E-2,9.1779344E-2,6.0911532E-2,9.434035E-2,2.8831022E0,2.0079242E-1,-4.8581555E-1,-9.800079E-2,-7.111142E-1,2.6956377E0,4.509707E-1,-1.427574E-1,2.9894033E-1,8.215858E-1,-5.3771484E-1,-1.4193138E-1,1.5491275E-1,5.6653774E-1,1.0756172E0,1.5274585E0,1.7034148E0,1.7444772E-1,3.408728E-1,1.1217294E0,2.8330866E-2,2.3790617E0,7.958397E-1,1.5140715E0,1.5246347E0,2.82368E0,1.3378344E0,8.903044E-2,9.680433E-2,3.4184442E0,-1.7743972E-1,2.5779358E-1,-4.7675412E-2,-1.8014356E-2,-1.401727E0,-3.4289416E-2,-6.425524E-1,-2.615531E-1,1.26954205E-2,-5.041917E-1,1.8731957E-2,4.0524077E-2,-1.0851753E-1,-2.5523527E-2,2.1265795E-2,-5.3592026E-3,-1.0340319E-2,5.978352E-3,-7.1394585E-2,-4.370572E-2,-2.0078302E-3,-2.7178392E-2,7.5346016E-4,2.6763356E-1,-6.8959415E-2,-2.4905263E-2,-3.6975026E-2,-1.6135683E-2,-7.353359E-2,-3.713798E-2,-7.354288E-2,-1.9470826E-2,-2.3973098E-2,9.106076E-3,-2.2644514E-2,1.6949609E-2,-3.6955457E-2,-7.81912E-2,-4.9699504E-2,-3.073521E-2,-1.837321E-2,-1.6702738E-3,1.7411262E-3,2.0545516E-2,1.6571198E-3,2.8528934E-2,3.3621605E-2,4.786744E-2,6.1616987E-2,7.971123E-2,4.251829E-2,6.126985E-2,8.272746E-2,1.603662E-1,-3.7557136E-2,-1.8749824E-2,-2.1369701E-2,1.0638203E-3,-4.363644E-2,2.0039806E-2,6.6921465E-2,1.5573426E-1,2.3051589E-3,8.7775394E-2,4.2691063E-3,-1.4130361E-2,1.2194795E-2,2.8665775E-2,2.8112039E-2,5.089567E-2,-2.9099593E-2,-6.0120155E-3,9.143157E-3,-1.2052237E-2,1.8462762E-3,1.9060258E-2,2.3406839E-2,4.0542573E-2,3.242992E-2,5.907035E-2,5.3146552E-2,8.287374E-2,6.40286E-2,8.85152E-2,2.5925001E-2,-2.909119E-3,3.498577E-2,7.60845E-2,9.220142E-2,1.5928479E-1,3.449915E-2,7.120628E-2,4.8231684E-2,8.2818456E-2,5.2434046E-2,8.38727E-2,1.04437254E-1,1.9516134E-1,5.568217E-2,7.542868E-2,9.329222E-2,1.7792957E-1,-2.4351088E-2,4.259283E-3,-1.5133177E-2,3.5798468E-2,-4.522827E-2,-7.9284795E-2,-3.8726404E-2,-1.5360308E-2,-2.2750497E-3,-1.8925568E-2,9.381918E-3,-3.2317787E-3,-9.377372E-3,-3.0655194E-2,1.0573075E-2,-9.886101E-3,-1.0010749E-3,2.07399E-2],"categories":[],"categories_nodes":[],"categories_segments":[],"categories_sizes":[],"default_left":[0,0,0,0,0,0,0,0,0,0,0,0,0,0,0,0,0,0,0,0,0,0,0,0,0,0,0,0,0,0,0,0,0,0,0,0,0,0,0,0,0,0,0,0,0,0,0,0,0,0,0,0,0,0,0,0,0,0,0,0,0,0,0,0,0,0,0,0,0,0,0,0,0,0,0,0,0,0,0,0,0,0,0,0,0,0,0,0,0,0,0,0,0,0,0,0,0,0,0,0,0,0,0,0,0,0,0,0,0,0,0,0,0,0,0,0,0,0,0,0,0,0,0,0,0,0,0,0,0,0,0,0,0,0,0,0,0,0,0,0,0,0,0,0,0,0,0,0,0,0,0,0,0,0,0,0,0,0,0,0,0,0,0,0,0,0,0,0,0,0,0,0,0,0,0,0,0,0,0,0,0,0,0,0,0,0,0,0,0,0,0,0,0,0,0,0,0,0,0,0,0,0,0,0,0,0,0,0,0,0,0,0,0,0,0,0,0,0,0,0,0,0,0,0,0,0,0,0,0,0,0,0,0,0,0,0,0,0,0,0,0,0,0,0,0,0,0,0,0,0,0,0,0,0,0,0,0,0,0,0,0,0,0,0,0,0,0,0,0,0,0,0,0,0,0,0,0,0,0,0,0,0,0,0,0],"id":5,"left_children":[1,3,5,7,9,11,13,15,17,19,21,23,25,27,29,31,33,35,37,39,41,43,45,47,49,51,53,55,57,59,61,63,65,67,69,71,73,75,77,79,81,83,85,87,89,91,-1,93,95,97,-1,-1,99,-1,-1,101,103,-1,105,107,-1,109,111,113,115,117,119,121,123,125,127,-1,-1,-1,-1,129,131,133,135,137,139,141,143,145,147,149,151,153,155,157,159,161,163,165,167,169,171,173,175,-1,-1,-1,177,-1,179,-1,181,-1,-1,-1,183,185,187,-1,-1,189,191,193,195,197,199,201,203,205,207,209,211,213,-1,-1,215,-1,-1,-1,-1,217,-1,219,221,223,225,227,229,231,233,235,237,239,241,243,245,247,-1,249,251,-1,253,255,257,259,261,263,-1,-1,265,267,269,-1,-1,271,-1,273,275,277,279,-1,-1,-1,-1,-1,-1,-1,-1,-1,281,-1,-1,-1,283,-1,-1,-1,-1,-1,-1,-1,-1,-1,-1,-1,-1,-1,-1,-1,-1,-1,-1,-1,-1,-1,-1,-1,-1,-1,-1,-1,-1,-1,-1,-1,-1,-1,-1,-1,-1,-1,-1,-1,-1,-1,-1,-1,-1,-1,-1,-1,-1,-1,-1,-1,-1,-1,-1,-1,-1,-1,-1,-1,-1,-1,-1,-1,-1,-1,-1,-1,-1,-1,-1,-1,-1,-1,-1,-1,-1,-1,-1,-1,-1,-1,-1,-1,-1,-1,-1,-1,-1,-1,-1,-1,-1,-1,-1,-1,-1],"loss_changes":[5.340526E3,4.8554504E2,9.103452E2,7.431598E2,1.0290011E3,1.01657425E2,3.375293E1,2.3690274E2,3.6182935E2,4.0423578E2,6.0089795E2,3.695911E1,2.1405289E1,5.9370117E0,1.2740576E2,5.63703E1,2.2072134E2,1.9217567E0,1.0977582E2,1.1570405E2,5.054176E2,1.19671814E2,2.748152E2,1.3792469E1,2.4696857E1,6.903279E0,9.791107E-1,1.3354492E-1,4.7466446E1,1.1540527E0,2.8530006E1,6.7517334E1,8.170581E1,3.228694E1,3.3373962E1,1.841114E0,1.2628984E-1,7.5247345E0,7.4710754E1,3.5856476E1,4.8870224E1,3.9336327E1,9.9472534E1,5.2717896E1,2.5714294E1,4.956848E1,0E0,2.9732862E0,6.779827E0,7.958088E0,0E0,0E0,6.794224E-1,0E0,0E0,1.1816406E-1,3.812471E1,0E0,2.8563645E0,3.010254E-1,0E0,1.4604782E1,1.7369293E0,1.1371231E0,2.206253E1,2.2846802E1,2.760243E1,2.52557E0,4.0797124E0,2.3182564E0,1.5472961E1,0E0,0E0,0E0,0E0,1.9045029E0,2.431488E-1,1.5437698E0,1.1475342E1,1.593705E1,1.3636975E2,3.2735023E1,2.14365E1,6.351431E0,4.2183876E0,1.0449921E1,9.882648E1,5.8002106E1,1.1273811E1,1.5672485E1,3.518164E1,4.278595E0,4.3903076E1,1.7669219E0,3.4405994E-1,1.771759E0,8.341284E-1,1.8139441E0,4.8582268E-1,0E0,0E0,0E0,4.31304E0,0E0,5.381959E-1,0E0,2.895966E-1,0E0,0E0,0E0,8.821016E0,6.175889E-1,2.9831254E-1,0E0,0E0,8.196686E0,1.82796E0,8.792297E0,1.0587271E1,1.2505886E1,3.2320194E1,5.184059E-1,1.0512962E0,9.386039E-1,1.4154781E0,9.687675E-1,4.8886108E-1,1.439209E-1,0E0,0E0,2.5790405E-1,0E0,0E0,0E0,0E0,9.82962E0,0E0,1.3390869E1,5.4702783E0,6.4596195E0,6.0684357E0,6.910864E1,1.0201913E1,2.4578562E0,6.9633408E0,2.000286E0,2.1687152E0,1.2408056E0,9.907303E-1,6.0098877E0,4.096649E0,5.0479126E-1,0E0,2.214568E1,2.2228119E1,0E0,3.188591E0,3.140892E0,3.9532623E0,5.223419E0,1.5649048E1,1.6119232E0,0E0,0E0,9.7592163E-1,2.3180022E0,3.8117275E0,0E0,0E0,4.8633957E-1,0E0,9.127569E-1,2.6073706E-1,3.0975536E-1,2.2987819E-1,0E0,0E0,0E0,0E0,0E0,0E0,0E0,0E0,0E0,5.134095E-1,0E0,0E0,0E0,3.8929832E-1,0E0,0E0,0E0,0E0,0E0,0E0,0E0,0E0,0E0,0E0,0E0,0E0,0E0,0E0,0E0,0E0,0E0,0E0,0E0,0E0,0E0,0E0,0E0,0E0,0E0,0E0,0E0,0E0,0E0,0E0,0E0,0E0,0E0,0E0,0E0,0E0,0E0,0E0,0E0,0E0,0E0,0E0,0E0,0E0,0E0,0E0,0E0,0E0,0E0,0E0,0E0,0E0,0E0,0E0,0E0,0E0,0E0,0E0,0E0,0E0,0E0,0E0,0E0,0E0,0E0,0E0,0E0,0E0,0E0,0E0,0E0,0E0,0E0,0E0,0E0,0E0,0E0,0E0,0E0,0E0,0E0,0E0,0E0,0E0,0E0,0E0,0E0,0E0,0E0,0E0,0E0,0E0,0E0,0E0,0E0,0E0],"parents":[2147483647,0,0,1,1,2,2,3,3,4,4,5,5,6,6,7,7,8,8,9,9,10,10,11,11,12,12,13,13,14,14,15,15,16,16,17,17,18,18,19,19,20,20,21,21,22,22,23,23,24,24,25,25,26,26,27,27,28,28,29,29,30,30,31,31,32,32,33,33,34,34,35,35,36,36,37,37,38,38,39,39,40,40,41,41,42,42,43,43,44,44,45,45,47,47,48,48,49,49,52,52,55,55,56,56,58,58,59,59,61,61,62,62,63,63,64,64,65,65,66,66,67,67,68,68,69,69,70,70,75,75,76,76,77,77,78,78,79,79,80,80,81,81,82,82,83,83,84,84,85,85,86,86,87,87,88,88,89,89,90,90,91,91,92,92,93,93,94,94,95,95,96,96,97,97,98,98,102,102,104,104,106,106,110,110,111,111,112,112,115,115,116,116,117,117,118,118,119,119,120,120,121,121,122,122,123,123,124,124,125,125,126,126,127,127,130,130,135,135,137,137,138,138,139,139,140,140,141,141,142,142,143,143,144,144,145,145,146,146,147,147,148,148,149,149,150,150,151,151,153,153,154,154,156,156,157,157,158,158,159,159,160,160,161,161,164,164,165,165,166,166,169,169,171,171,172,172,173,173,174,174,184,184,188,188],"right_children":[2,4,6,8,10,12,14,16,18,20,22,24,26,28,30,32,34,36,38,40,42,44,46,48,50,52,54,56,58,60,62,64,66,68,70,72,74,76,78,80,82,84,86,88,90,92,-1,94,96,98,-1,-1,100,-1,-1,102,104,-1,106,108,-1,110,112,114,116,118,120,122,124,126,128,-1,-1,-1,-1,130,132,134,136,138,140,142,144,146,148,150,152,154,156,158,160,162,164,166,168,170,172,174,176,-1,-1,-1,178,-1,180,-1,182,-1,-1,-1,184,186,188,-1,-1,190,192,194,196,198,200,202,204,206,208,210,212,214,-1,-1,216,-1,-1,-1,-1,218,-1,220,222,224,226,228,230,232,234,236,238,240,242,244,246,248,-1,250,252,-1,254,256,258,260,262,264,-1,-1,266,268,270,-1,-1,272,-1,274,276,278,280,-1,-1,-1,-1,-1,-1,-1,-1,-1,282,-1,-1,-1,284,-1,-1,-1,-1,-1,-1,-1,-1,-1,-1,-1,-1,-1,-1,-1,-1,-1,-1,-1,-1,-1,-1,-1,-1,-1,-1,-1,-1,-1,-1,-1,-1,-1,-1,-1,-1,-1,-1,-1,-1,-1,-1,-1,-1,-1,-1,-1,-1,-1,-1,-1,-1,-1,-1,-1,-1,-1,-1,-1,-1,-1,-1,-1,-1,-1,-1,-1,-1,-1,-1,-1,-1,-1,-1,-1,-1,-1,-1,-1,-1,-1,-1,-1,-1,-1,-1,-1,-1,-1,-1,-1,-1,-1,-1,-1,-1],"split_conditions":[1E0,5E-1,1E0,6.3E-1,6.3E-1,5.5E-1,7.5E-1,7E-1,4E-1,7E-1,9E-1,7.8E-1,9E-1,9E-1,9E-1,4.7E-1,6.5E-1,8E-1,9E-1,4.5E-1,6.7E-1,5E-1,8.9E-1,6.95E0,7E-1,2E-1,5.3E-1,9.3E-1,8.3E-1,8E-1,9E-1,1E-1,3E-1,4E-1,8.3E-1,2.6E-1,2.8E-1,8.9E-1,8.5E-1,8E-1,9E-1,5.1E-1,8.9E-1,8E-1,6.7E-1,7.9E-1,1.912836E-1,8.7E-1,5E-1,6E-1,1.03233434E-1,-1.9931197E-2,8.2E-1,1.5528856E-1,7.7162474E-2,9.9E-1,9E-1,-1.2604271E-1,8.6E-1,1E0,-1.0215737E-1,1E0,1E-1,8E-1,4E-1,2.2E-1,8.2E-1,2.2E-1,5.1E-1,2E-1,9E-1,-6.619894E-2,-3.6035847E-2,-3.176251E-2,-1.4259294E-2,7.3E-1,8E-1,7.5E-1,1E0,3.4E-1,5.2E-1,5.3E-1,5.3E-1,2E-1,5.9E-1,9E-1,9E-1,7E-1,8E-1,8.3E-1,9E-1,7.4E-1,1E0,5E-1,2E-1,2.5E-1,6E-1,1E0,8.6E-1,2.8187225E-2,7.471729E-2,-1.267973E-1,8E-1,-1.2484936E-1,1.9E-1,-4.630521E-2,6E-2,-1.2766847E-1,-6.2137056E-2,-9.361312E-2,8E-1,3.1E-1,1E0,4.434757E-2,1.1311817E-1,3.3E-1,7.3E-1,6.1E-1,4E-1,4.3E-1,5E-1,3E-1,8.4E-1,2.9E-1,4E-1,6.9E-1,7.1E-1,9.1E-1,1.3101052E-1,1.769306E-2,8E-1,6.5765604E-2,9.1779344E-2,6.0911532E-2,9.434035E-2,8.9E-1,2.0079242E-1,3.5E-1,6.4E-1,4E-1,8.3E-1,7E-1,6.8768E0,4.7E-1,3.4E-1,8.1E-1,8.06413E1,8.08E1,9E-1,7.4E-1,7.3E-1,8E-1,1.7444772E-1,7.8E-1,8.1E-1,2.8330866E-2,8.10167E1,6E-1,7E-1,8.02833E1,8.7E-1,6E-1,8.903044E-2,9.680433E-2,8E-1,5E-1,6.9E-1,-4.7675412E-2,-1.8014356E-2,7.3E-1,-3.4289416E-2,3.1E-1,4.7E-1,1.2E-1,8.8E-1,1.8731957E-2,4.0524077E-2,-1.0851753E-1,-2.5523527E-2,2.1265795E-2,-5.3592026E-3,-1.0340319E-2,5.978352E-3,-7.1394585E-2,2E-1,-2.0078302E-3,-2.7178392E-2,7.5346016E-4,9.3E-1,-6.8959415E-2,-2.4905263E-2,-3.6975026E-2,-1.6135683E-2,-7.353359E-2,-3.713798E-2,-7.354288E-2,-1.9470826E-2,-2.3973098E-2,9.106076E-3,-2.2644514E-2,1.6949609E-2,-3.6955457E-2,-7.81912E-2,-4.9699504E-2,-3.073521E-2,-1.837321E-2,-1.6702738E-3,1.7411262E-3,2.0545516E-2,1.6571198E-3,2.8528934E-2,3.3621605E-2,4.786744E-2,6.1616987E-2,7.971123E-2,4.251829E-2,6.126985E-2,8.272746E-2,1.603662E-1,-3.7557136E-2,-1.8749824E-2,-2.1369701E-2,1.0638203E-3,-4.363644E-2,2.0039806E-2,6.6921465E-2,1.5573426E-1,2.3051589E-3,8.7775394E-2,4.2691063E-3,-1.4130361E-2,1.2194795E-2,2.8665775E-2,2.8112039E-2,5.089567E-2,-2.9099593E-2,-6.0120155E-3,9.143157E-3,-1.2052237E-2,1.8462762E-3,1.9060258E-2,2.3406839E-2,4.0542573E-2,3.242992E-2,5.907035E-2,5.3146552E-2,8.287374E-2,6.40286E-2,8.85152E-2,2.5925001E-2,-2.909119E-3,3.498577E-2,7.60845E-2,9.220142E-2,1.5928479E-1,3.449915E-2,7.120628E-2,4.8231684E-2,8.2818456E-2,5.2434046E-2,8.38727E-2,1.04437254E-1,1.9516134E-1,5.568217E-2,7.542868E-2,9.329222E-2,1.7792957E-1,-2.4351088E-2,4.259283E-3,-1.5133177E-2,3.5798468E-2,-4.522827E-2,-7.9284795E-2,-3.8726404E-2,-1.5360308E-2,-2.2750497E-3,-1.8925568E-2,9.381918E-3,-3.2317787E-3,-9.377372E-3,-3.0655194E-2,1.0573075E-2,-9.886101E-3,-1.0010749E-3,2.07399E-2],"split_indices":[11,6,8,0,2,0,2,7,4,7,6,3,4,7,6,3,3,7,4,2,3,5,2,9,7,4,2,0,3,6,2,4,7,3,3,1,1,0,0,4,6,3,3,3,1,2,0,1,3,7,0,0,0,0,0,1,4,0,3,5,0,6,0,1,6,0,3,3,3,4,7,0,0,0,0,0,4,0,4,1,0,3,2,4,3,7,7,6,7,2,5,2,6,6,6,0,7,4,3,0,0,0,5,0,1,0,0,0,0,0,2,3,6,0,0,0,2,2,4,0,7,4,1,0,4,3,3,3,0,0,4,0,0,0,0,0,0,2,3,0,0,4,9,1,1,1,10,10,7,3,3,7,0,1,2,0,10,7,6,10,1,5,0,0,2,3,2,0,0,1,0,0,2,1,3,0,0,0,0,0,0,0,0,0,0,0,0,0,2,0,0,0,0,0,0,0,0,0,0,0,0,0,0,0,0,0,0,0,0,0,0,0,0,0,0,0,0,0,0,0,0,0,0,0,0,0,0,0,0,0,0,0,0,0,0,0,0,0,0,0,0,0,0,0,0,0,0,0,0,0,0,0,0,0,0,0,0,0,0,0,0,0,0,0,0,0,0,0,0,0,0,0,0,0,0,0,0,0,0,0,0,0,0,0,0],"split_type":[0,0,0,0,0,0,0,0,0,0,0,0,0,0,0,0,0,0,0,0,0,0,0,0,0,0,0,0,0,0,0,0,0,0,0,0,0,0,0,0,0,0,0,0,0,0,0,0,0,0,0,0,0,0,0,0,0,0,0,0,0,0,0,0,0,0,0,0,0,0,0,0,0,0,0,0,0,0,0,0,0,0,0,0,0,0,0,0,0,0,0,0,0,0,0,0,0,0,0,0,0,0,0,0,0,0,0,0,0,0,0,0,0,0,0,0,0,0,0,0,0,0,0,0,0,0,0,0,0,0,0,0,0,0,0,0,0,0,0,0,0,0,0,0,0,0,0,0,0,0,0,0,0,0,0,0,0,0,0,0,0,0,0,0,0,0,0,0,0,0,0,0,0,0,0,0,0,0,0,0,0,0,0,0,0,0,0,0,0,0,0,0,0,0,0,0,0,0,0,0,0,0,0,0,0,0,0,0,0,0,0,0,0,0,0,0,0,0,0,0,0,0,0,0,0,0,0,0,0,0,0,0,0,0,0,0,0,0,0,0,0,0,0,0,0,0,0,0,0,0,0,0,0,0,0,0,0,0,0,0,0,0,0,0,0,0,0,0,0,0,0,0,0,0,0,0,0,0,0,0,0,0,0,0,0],"sum_hessian":[5.773E3,4.638E3,1.135E3,1.472E3,3.166E3,1.89E2,9.46E2,1.232E3,2.4E2,2.086E3,1.08E3,1.65E2,2.4E1,6.98E2,2.48E2,9.39E2,2.93E2,4.5E1,1.95E2,1.418E3,6.68E2,7.28E2,3.52E2,1.1E2,5.5E1,1.1E1,1.3E1,6.38E2,6E1,1.79E2,6.9E1,2.09E2,7.3E2,1.38E2,1.55E2,3.1E1,1.4E1,9E1,1.05E2,6.52E2,7.66E2,2.78E2,3.9E2,4.73E2,2.55E2,2.37E2,1.15E2,4.7E1,6.3E1,4.8E1,7E0,3E0,8E0,9E0,4E0,5.94E2,4.4E1,4.6E1,1.4E1,1.43E2,3.6E1,4.1E1,2.8E1,7E0,2.02E2,1.77E2,5.53E2,6.1E1,7.7E1,7.1E1,8.4E1,1.7E1,1.4E1,1E1,4E0,4.6E1,4.4E1,3.4E1,7.1E1,6.02E2,5E1,4.48E2,3.18E2,1.76E2,1.02E2,2.45E2,1.45E2,4.48E2,2.5E1,1.31E2,1.24E2,1.39E2,9.8E1,4E1,7E0,2.8E1,3.5E1,3E1,1.8E1,3E0,5E0,5.85E2,9E0,3.8E1,6E0,5E0,9E0,1.4E2,3E0,2.3E1,1.8E1,1E1,1.8E1,3E0,4E0,1.55E2,4.7E1,1.07E2,7E1,3.36E2,2.17E2,1.4E1,4.7E1,3.7E1,4E1,1.3E1,5.8E1,6.8E1,1.6E1,5E0,4.1E1,1.7E1,2.7E1,1.7E1,1.7E1,3.7E1,3.4E1,4.64E2,1.38E2,3.3E1,1.7E1,1.3E2,3.18E2,1.71E2,1.47E2,1.11E2,6.5E1,4.6E1,5.6E1,1.49E2,9.6E1,9.7E1,4.8E1,3.11E2,1.37E2,5E0,2E1,6.1E1,7E1,9.5E1,2.9E1,8.5E1,5.4E1,6.4E1,3.4E1,2.7E1,1.3E1,3E0,4E0,2E1,8E0,2.5E1,1E1,2.1E1,9E0,7E0,1.1E1,6E0,3E0,3E0,3E0,4E0,5E0,7E0,1.1E1,4E0,6E0,1E1,8E0,1.42E2,1.3E1,2E1,2.7E1,8.2E1,2.5E1,1E1,6E1,3.05E2,3.1E1,8.2E1,1.35E2,4E0,1E1,2.6E1,2.1E1,2.4E1,1.3E1,2.3E1,1.7E1,6E0,7E0,2.5E1,3.3E1,2.9E1,3.9E1,1.6E1,2.5E1,9E0,2.8E1,1.35E2,3.29E2,3.6E1,1.02E2,2.9E1,4E0,5E0,1.2E1,1E2,3E1,1.21E2,1.97E2,1.44E2,2.7E1,6.5E1,8.2E1,1E2,1.1E1,1.5E1,5E1,3.1E1,1.5E1,4.2E1,1.4E1,3.1E1,1.18E2,2.3E1,7.3E1,1.6E1,8.1E1,2.15E2,9.6E1,6.8E1,6.9E1,1.4E1,6E0,5.4E1,7E0,1.6E1,5.4E1,2.5E1,7E1,1.9E1,1E1,4E1,4.5E1,4E0,3E1,1.2E1,1.5E1,6E0,7E0,7E0,1.3E1,1.7E1,8E0,4E0,6E0,6E0,1.5E1,3E0,6E0,4E0,7E0,3E0,5E0],"tree_param":{"num_deleted":"0","num_feature":"12","num_nodes":"285","size_leaf_vector":"1"}},{"base_weights":[1.2479504E-2,4.5868292E-1,-1.8326107E0,3.0941314E-1,1.0324371E0,1.2962472E-1,-2.2345011E0,7.052941E-2,7.127512E-1,-2.4076177E-2,2.2719095E0,-4.9740765E-2,2.4008698E0,-1.15680054E-1,-1.818711E0,5.1035595E-1,-1.9189344E-1,1.6712746E-1,1.40402E0,-7.298662E-1,4.43502E-1,1.481783E0,2.976951E0,-3.8862494E-1,5.905687E-1,4.4165418E-2,1.5729071E-1,-2.2958624E0,-3.142824E-1,2.8566238E-1,1.2723981E0,-5.333436E-1,8.4840186E-2,-2.3404786E-1,4.371381E-1,1.1001357E0,2.2964394E0,-8.368108E-1,-1.4385898E-1,6.2295336E-1,2.817995E-3,1.2605063E0,1.8025103E0,2.3069327E0,1.8341237E-1,-3.011596E-2,-6.6519827E-1,3.543422E-1,1.1980069E-1,-1.2192923E-1,-9.7577505E-2,-6.3543093E-1,7.785103E-2,-1.2768658E-1,8.753369E-1,-4.3260443E-1,3.1271093E0,-8.5702705E-1,-2.1396829E-1,-1.880657E-1,5.0918627E-1,8.789151E-2,-4.6966588E-1,3.2913804E-1,1.3505318E0,4.459165E-1,1.3332868E0,1.6317115E0,1.6878465E-1,-1.3007628E0,-7.427465E-1,-5.3786516E-1,2.586095E-1,5.107111E-1,1.0276225E0,-2.6410824E-1,1.2564407E-1,1.0785849E0,1.8380823E0,7.6336704E-2,9.9062964E-2,9.385442E-2,3.1515555E0,4.9985744E-2,-1.1356917E-1,-7.567086E-1,1.8801164E-2,3.6285568E-2,7.19935E-1,-1.0227077E0,-1.07155725E-1,-8.823788E-2,1.7572666E-2,-3.646251E-1,1.0517607E0,-4.3727824E-1,1.5594424E0,-9.6033096E-1,1.6857037E-1,2.1899753E0,1.7877346E-1,-1.100471E0,-1.9994867E-1,-2.502805E-1,7.408865E-2,-4.340143E-1,-2.5133416E-2,2.0766735E-1,7.74943E-1,-5.5634147E-1,1.6218858E0,-9.0871924E-1,2.5393096E-1,1.377766E-1,6.2123597E-1,2.4773955E-1,3.346933E0,2.7355707E-1,6.8174857E-1,1.046571E0,1.5907506E0,7.417511E-2,9.614854E-2,-7.659551E-2,-2.6570303E-2,-7.9718053E-1,-2.4724358E-1,-3.0941078E-2,-1.0990279E-2,-1.0341555E-4,2.206454E-2,3.0469733E-1,7.813334E-1,4.6291393E-1,1.2778636E0,-3.0436695E-2,-1.9685123E-2,-1.3845956E-2,2.7954462E-1,9.169969E-1,1.2940023E0,7.252503E-2,1.337086E-1,9.486097E-2,1.6833268E-1,-2.5854376E-1,3.549811E-1,-1.0117053E0,-5.383767E-1,1.9999819E-1,-9.3062334E-2,1.8711966E-2,4.2639326E-2,-7.124361E-2,-2.6594708E-2,-1.1329156E-2,2.8794145E-3,-1.2313084E-2,2.9908249E-3,-2.8076453E-2,1.0244742E-2,-1.7035982E-2,6.248507E-2,-6.912506E-2,5.6115664E-3,6.5606944E-2,1.4916427E-1,-7.046598E-2,-1.8258587E-2,-6.6764257E-3,5.555847E-2,8.176819E-2,1.4129254E-1,-6.06302E-2,-3.6964934E-2,-3.298975E-2,1.171272E-2,-1.9127438E-2,-6.616376E-4,-2.997286E-2,-4.024144E-3,-5.087431E-3,9.054205E-3,4.6419753E-3,3.0250585E-2,2.6843805E-2,6.1038744E-2,-3.121078E-2,3.815433E-2,5.4660775E-2,1.1567618E-1,-5.5216808E-2,-2.4381926E-2,3.633316E-2,-1.8906258E-3,6.6064746E-4,3.0471355E-2,2.3049306E-2,5.414624E-2,-8.667717E-3,4.0076423E-2,9.275656E-2,1.8316232E-1,9.431843E-3,2.4802102E-2,2.9527947E-2,4.2757686E-2,3.6392733E-2,5.6028187E-2,6.3793175E-2,8.213787E-2,-4.1841626E-2,-1.42466575E-2,8.950923E-3,-2.2863673E-2,2.719612E-3,2.2740582E-2,2.0780018E-2,4.4899996E-2,1.1363475E-2,2.9078683E-2,5.1408917E-2,7.62723E-2,-1.32161155E-2,8.00112E-3,7.5402902E-3,-7.5885667E-3,9.196538E-3,1.8783987E-2,1.8597374E-2,4.7464356E-2,3.9958857E-2,6.7890964E-2,-4.995848E-2,-5.802493E-3,-6.044664E-3,3.5608094E-2,-5.436316E-2,-2.3089884E-2,-4.7851517E-3,-2.9620433E-2,4.8896065E-3,1.8220535E-2,-7.579078E-3,7.482517E-3],"categories":[],"categories_nodes":[],"categories_segments":[],"categories_sizes":[],"default_left":[0,0,0,0,0,0,0,0,0,0,0,0,0,0,0,0,0,0,0,0,0,0,0,0,0,0,0,0,0,0,0,0,0,0,0,0,0,0,0,0,0,0,0,0,0,0,0,0,0,0,0,0,0,0,0,0,0,0,0,0,0,0,0,0,0,0,0,0,0,0,0,0,0,0,0,0,0,0,0,0,0,0,0,0,0,0,0,0,0,0,0,0,0,0,0,0,0,0,0,0,0,0,0,0,0,0,0,0,0,0,0,0,0,0,0,0,0,0,0,0,0,0,0,0,0,0,0,0,0,0,0,0,0,0,0,0,0,0,0,0,0,0,0,0,0,0,0,0,0,0,0,0,0,0,0,0,0,0,0,0,0,0,0,0,0,0,0,0,0,0,0,0,0,0,0,0,0,0,0,0,0,0,0,0,0,0,0,0,0,0,0,0,0,0,0,0,0,0,0,0,0,0,0,0,0,0,0,0,0,0,0,0,0,0,0,0,0,0,0,0,0,0,0,0,0,0,0,0,0,0,0,0,0,0,0,0,0,0,0,0,0,0,0,0,0],"id":6,"left_children":[1,3,5,7,9,11,13,15,17,19,21,23,25,-1,27,29,31,33,35,37,39,41,43,45,47,-1,-1,49,51,53,55,57,59,61,63,65,67,69,71,73,75,77,79,81,-1,83,85,87,-1,-1,-1,89,91,93,95,97,99,101,103,105,107,109,111,113,115,117,119,121,-1,123,125,127,129,131,133,135,137,139,141,-1,-1,-1,143,-1,145,147,-1,149,151,153,155,157,-1,159,161,163,165,167,169,171,-1,173,175,177,-1,179,181,183,185,187,189,191,193,195,197,199,201,203,205,207,209,-1,-1,-1,-1,211,213,-1,-1,-1,-1,215,217,219,221,-1,223,225,227,229,231,-1,-1,-1,-1,233,235,237,239,241,243,-1,-1,-1,-1,-1,-1,-1,-1,-1,-1,-1,-1,-1,-1,-1,-1,-1,-1,-1,-1,-1,-1,-1,-1,-1,-1,-1,-1,-1,-1,-1,-1,-1,-1,-1,-1,-1,-1,-1,-1,-1,-1,-1,-1,-1,-1,-1,-1,-1,-1,-1,-1,-1,-1,-1,-1,-1,-1,-1,-1,-1,-1,-1,-1,-1,-1,-1,-1,-1,-1,-1,-1,-1,-1,-1,-1,-1,-1,-1,-1,-1,-1,-1,-1,-1,-1,-1,-1,-1,-1,-1,-1,-1,-1],"loss_changes":[4.7264995E3,3.9561353E2,8.819487E2,3.535575E2,1.2493357E3,7.792957E1,2.6312988E1,2.6625772E2,5.1460596E2,1.706099E2,2.4014331E2,3.885386E1,1.3048264E1,0E0,1.0910806E2,1.472333E2,1.3658438E2,8.2860016E1,1.6073132E2,1.2789703E1,2.4592545E1,1.2560577E1,9.853247E1,1.1580988E1,2.5593618E1,0E0,0E0,9.412842E-1,4.8349257E0,1.6268726E2,6.2116113E2,6.670122E1,9.262519E1,2.3404533E1,4.463697E1,6.819733E1,1.0353815E2,6.6274567E0,5.3720746E0,9.513222E0,3.0166643E0,1.1361786E1,1.0665588E0,3.7651E1,0E0,4.5825562E0,6.5731907E0,6.4855137E0,0E0,0E0,0E0,4.1867743E0,8.48973E-1,1.1020989E2,2.4762291E2,3.283924E1,3.1666138E1,5.112767E1,2.0506245E1,1.9504622E1,2.4919968E1,1.3036304E2,5.6780933E1,2.2831882E1,1.0484838E2,4.691246E0,2.2843079E1,1.2913666E0,0E0,4.165306E0,3.7678223E0,3.0171156E-1,8.104689E-1,9.518513E0,6.0501785E0,2.430817E0,1.356329E0,2.2594833E0,5.518654E0,0E0,0E0,0E0,4.135132E0,0E0,3.4202442E0,2.851429E0,0E0,6.750647E-1,8.749342E-1,1.6107721E0,2.0979801E-1,2.9548386E-1,0E0,3.6897217E1,1.8617287E1,4.9499027E1,5.981952E1,1.4182446E1,1.4101518E1,7.0165863E0,0E0,8.580353E0,1.7725227E1,1.0059536E1,0E0,1.1298672E1,4.6634474E0,6.6965094E0,1.6963478E1,8.804951E0,1.1731102E1,8.604599E0,9.405802E0,1.4620825E1,1.1486446E1,7.601256E0,1.2261047E0,1.2478647E0,2.8561783E-1,2.957611E0,7.371521E-1,0E0,0E0,0E0,0E0,2.4426956E0,1.5143046E0,0E0,0E0,0E0,0E0,3.7702742E0,2.826954E0,3.152101E-1,4.0973663E-1,0E0,8.33634E-1,7.950162E-1,2.0665646E-1,7.028961E-1,1.7799377E-1,0E0,0E0,0E0,0E0,3.894364E0,2.125774E0,6.197529E-1,7.804537E-1,1.9961888E-1,2.7834466E-1,0E0,0E0,0E0,0E0,0E0,0E0,0E0,0E0,0E0,0E0,0E0,0E0,0E0,0E0,0E0,0E0,0E0,0E0,0E0,0E0,0E0,0E0,0E0,0E0,0E0,0E0,0E0,0E0,0E0,0E0,0E0,0E0,0E0,0E0,0E0,0E0,0E0,0E0,0E0,0E0,0E0,0E0,0E0,0E0,0E0,0E0,0E0,0E0,0E0,0E0,0E0,0E0,0E0,0E0,0E0,0E0,0E0,0E0,0E0,0E0,0E0,0E0,0E0,0E0,0E0,0E0,0E0,0E0,0E0,0E0,0E0,0E0,0E0,0E0,0E0,0E0,0E0,0E0,0E0,0E0,0E0,0E0,0E0,0E0,0E0,0E0,0E0,0E0,0E0,0E0,0E0,0E0,0E0,0E0],"parents":[2147483647,0,0,1,1,2,2,3,3,4,4,5,5,6,6,7,7,8,8,9,9,10,10,11,11,12,12,14,14,15,15,16,16,17,17,18,18,19,19,20,20,21,21,22,22,23,23,24,24,27,27,28,28,29,29,30,30,31,31,32,32,33,33,34,34,35,35,36,36,37,37,38,38,39,39,40,40,41,41,42,42,43,43,45,45,46,46,47,47,51,51,52,52,53,53,54,54,55,55,56,56,57,57,58,58,59,59,60,60,61,61,62,62,63,63,64,64,65,65,66,66,67,67,69,69,70,70,71,71,72,72,73,73,74,74,75,75,76,76,77,77,78,78,82,82,84,84,85,85,87,87,88,88,89,89,90,90,91,91,93,93,94,94,95,95,96,96,97,97,98,98,99,99,101,101,102,102,103,103,105,105,106,106,107,107,108,108,109,109,110,110,111,111,112,112,113,113,114,114,115,115,116,116,117,117,118,118,119,119,120,120,125,125,126,126,131,131,132,132,133,133,134,134,136,136,137,137,138,138,139,139,140,140,145,145,146,146,147,147,148,148,149,149,150,150],"right_children":[2,4,6,8,10,12,14,16,18,20,22,24,26,-1,28,30,32,34,36,38,40,42,44,46,48,-1,-1,50,52,54,56,58,60,62,64,66,68,70,72,74,76,78,80,82,-1,84,86,88,-1,-1,-1,90,92,94,96,98,100,102,104,106,108,110,112,114,116,118,120,122,-1,124,126,128,130,132,134,136,138,140,142,-1,-1,-1,144,-1,146,148,-1,150,152,154,156,158,-1,160,162,164,166,168,170,172,-1,174,176,178,-1,180,182,184,186,188,190,192,194,196,198,200,202,204,206,208,210,-1,-1,-1,-1,212,214,-1,-1,-1,-1,216,218,220,222,-1,224,226,228,230,232,-1,-1,-1,-1,234,236,238,240,242,244,-1,-1,-1,-1,-1,-1,-1,-1,-1,-1,-1,-1,-1,-1,-1,-1,-1,-1,-1,-1,-1,-1,-1,-1,-1,-1,-1,-1,-1,-1,-1,-1,-1,-1,-1,-1,-1,-1,-1,-1,-1,-1,-1,-1,-1,-1,-1,-1,-1,-1,-1,-1,-1,-1,-1,-1,-1,-1,-1,-1,-1,-1,-1,-1,-1,-1,-1,-1,-1,-1,-1,-1,-1,-1,-1,-1,-1,-1,-1,-1,-1,-1,-1,-1,-1,-1,-1,-1,-1,-1,-1,-1,-1,-1],"split_conditions":[1E0,7.8E-1,1E0,6E-1,7E-1,8.4E-1,8.4E-1,5.5E-1,7.4E-1,4E-1,9E-1,7.9E-1,9E-1,-1.15680054E-1,9E-1,9E-1,7E-1,3.8E-1,9E-1,8E-1,8E-1,9.1E-1,9E-1,6.95E0,8E-1,4.4165418E-2,1.5729071E-1,7E-1,9.3E-1,5.6E-1,7.4E-1,4E-1,5E-1,5.6E-1,9E-1,7E-1,9E-1,3.5E-1,4.8E-1,4E-1,8.6E-1,7E-1,8E-1,1E0,1.8341237E-1,4.2E-1,3.9E-1,6E-1,1.1980069E-1,-1.2192923E-1,-9.7577505E-2,1E0,1E0,6E-1,4E-1,2.7E-1,8.9E-1,3.5E-1,6.2E-1,2.1E-1,9E-1,5E-1,6E-1,6.2E-1,8.3E-1,8.9E-1,8.7E-1,8.5E-1,1.6878465E-1,3E-1,3.6E-1,9.2E-1,5.3E-1,9.2E-1,5.9E-1,5.7E-1,5E-1,8E-1,7.9E-1,7.6336704E-2,9.9062964E-2,9.385442E-2,8E-1,4.9985744E-2,5E-1,5E-1,1.8801164E-2,6.9269E0,8.6E-1,8.9E-1,6.4333E0,1E-1,1.7572666E-2,5E-1,7.4E-1,5E-1,9E-1,4E-1,5E-1,1E0,1.7877346E-1,5E-1,7E-1,8.7E-1,7.408865E-2,4E-1,4.9E-1,6.2E-1,5.9E-1,6E-1,9E-1,5E-1,8.07333E1,5E-1,9E-1,4E-1,8.9E-1,2.8E-1,9.7E-1,8E-1,8E-1,7.417511E-2,9.614854E-2,-7.659551E-2,-2.6570303E-2,6.3E-1,5E-1,-3.0941078E-2,-1.0990279E-2,-1.0341555E-4,2.206454E-2,8.06413E1,8.04714E1,8.3E-1,6.9E-1,-3.0436695E-2,2.2E-1,7.84E0,6.1E-1,2.1E-1,7.9E-1,7.252503E-2,1.337086E-1,9.486097E-2,1.6833268E-1,3.6E-1,6.9E-1,3.2E-1,7E-2,5.8E-1,1.8E-1,1.8711966E-2,4.2639326E-2,-7.124361E-2,-2.6594708E-2,-1.1329156E-2,2.8794145E-3,-1.2313084E-2,2.9908249E-3,-2.8076453E-2,1.0244742E-2,-1.7035982E-2,6.248507E-2,-6.912506E-2,5.6115664E-3,6.5606944E-2,1.4916427E-1,-7.046598E-2,-1.8258587E-2,-6.6764257E-3,5.555847E-2,8.176819E-2,1.4129254E-1,-6.06302E-2,-3.6964934E-2,-3.298975E-2,1.171272E-2,-1.9127438E-2,-6.616376E-4,-2.997286E-2,-4.024144E-3,-5.087431E-3,9.054205E-3,4.6419753E-3,3.0250585E-2,2.6843805E-2,6.1038744E-2,-3.121078E-2,3.815433E-2,5.4660775E-2,1.1567618E-1,-5.5216808E-2,-2.4381926E-2,3.633316E-2,-1.8906258E-3,6.6064746E-4,3.0471355E-2,2.3049306E-2,5.414624E-2,-8.667717E-3,4.0076423E-2,9.275656E-2,1.8316232E-1,9.431843E-3,2.4802102E-2,2.9527947E-2,4.2757686E-2,3.6392733E-2,5.6028187E-2,6.3793175E-2,8.213787E-2,-4.1841626E-2,-1.42466575E-2,8.950923E-3,-2.2863673E-2,2.719612E-3,2.2740582E-2,2.0780018E-2,4.4899996E-2,1.1363475E-2,2.9078683E-2,5.1408917E-2,7.62723E-2,-1.32161155E-2,8.00112E-3,7.5402902E-3,-7.5885667E-3,9.196538E-3,1.8783987E-2,1.8597374E-2,4.7464356E-2,3.9958857E-2,6.7890964E-2,-4.995848E-2,-5.802493E-3,-6.044664E-3,3.5608094E-2,-5.436316E-2,-2.3089884E-2,-4.7851517E-3,-2.9620433E-2,4.8896065E-3,1.8220535E-2,-7.579078E-3,7.482517E-3],"split_indices":[11,2,8,7,6,0,2,3,3,6,6,3,4,0,6,4,6,3,7,7,4,2,2,9,7,0,0,6,2,1,0,7,2,1,4,7,3,3,3,5,2,5,6,6,0,2,0,7,0,0,0,6,6,4,5,0,0,0,0,1,6,4,6,3,0,3,3,3,0,6,0,2,3,2,1,1,6,6,1,0,0,0,2,0,6,3,0,9,3,2,9,0,0,2,0,6,5,6,0,4,0,5,4,3,0,7,1,2,2,2,4,6,10,4,7,0,0,0,3,7,7,0,0,0,0,3,7,0,0,0,0,10,10,2,1,0,0,9,1,3,2,0,0,0,0,3,2,0,1,2,0,0,0,0,0,0,0,0,0,0,0,0,0,0,0,0,0,0,0,0,0,0,0,0,0,0,0,0,0,0,0,0,0,0,0,0,0,0,0,0,0,0,0,0,0,0,0,0,0,0,0,0,0,0,0,0,0,0,0,0,0,0,0,0,0,0,0,0,0,0,0,0,0,0,0,0,0,0,0,0,0,0,0,0,0,0,0,0,0,0,0,0,0,0,0],"split_type":[0,0,0,0,0,0,0,0,0,0,0,0,0,0,0,0,0,0,0,0,0,0,0,0,0,0,0,0,0,0,0,0,0,0,0,0,0,0,0,0,0,0,0,0,0,0,0,0,0,0,0,0,0,0,0,0,0,0,0,0,0,0,0,0,0,0,0,0,0,0,0,0,0,0,0,0,0,0,0,0,0,0,0,0,0,0,0,0,0,0,0,0,0,0,0,0,0,0,0,0,0,0,0,0,0,0,0,0,0,0,0,0,0,0,0,0,0,0,0,0,0,0,0,0,0,0,0,0,0,0,0,0,0,0,0,0,0,0,0,0,0,0,0,0,0,0,0,0,0,0,0,0,0,0,0,0,0,0,0,0,0,0,0,0,0,0,0,0,0,0,0,0,0,0,0,0,0,0,0,0,0,0,0,0,0,0,0,0,0,0,0,0,0,0,0,0,0,0,0,0,0,0,0,0,0,0,0,0,0,0,0,0,0,0,0,0,0,0,0,0,0,0,0,0,0,0,0,0,0,0,0,0,0,0,0,0,0,0,0,0,0,0,0,0,0],"sum_hessian":[5.739E3,4.622E3,1.117E3,3.669E3,9.53E2,1.9E2,9.27E2,2.305E3,1.364E3,5.15E2,4.38E2,1.77E2,1.3E1,7.75E2,1.52E2,8.61E2,1.444E3,7.63E2,6.01E2,2.05E2,3.1E2,2.08E2,2.3E2,1.16E2,6.1E1,5E0,8E0,1.15E2,3.7E1,6.66E2,1.95E2,6.46E2,7.98E2,3.07E2,4.56E2,4.5E2,1.51E2,1.73E2,3.2E1,2.2E2,9E1,1.26E2,8.2E1,1.19E2,1.11E2,5.1E1,6.5E1,5.5E1,6E0,7.7E1,3.8E1,2E1,1.7E1,3.92E2,2.74E2,1.02E2,9.3E1,3.2E2,3.26E2,4.86E2,3.12E2,1.3E2,1.77E2,4.09E2,4.7E1,1.19E2,3.31E2,9.5E1,5.6E1,2.7E1,1.46E2,1.6E1,1.6E1,1.74E2,4.6E1,2.8E1,6.2E1,9.8E1,2.8E1,3.6E1,4.6E1,8.1E1,3.8E1,3E0,4.8E1,6E1,5E0,3E1,2.5E1,1.1E1,9E0,1.1E1,6E0,3.27E2,6.5E1,9.4E1,1.8E2,5.4E1,4.8E1,3.2E1,6.1E1,2.33E2,8.7E1,3.2E2,6E0,1.93E2,2.93E2,1.47E2,1.65E2,9.2E1,3.8E1,1.1E2,6.7E1,2.48E2,1.61E2,3.1E1,1.6E1,7E1,4.9E1,1.59E2,1.72E2,6.7E1,2.8E1,2E1,7E0,1.31E2,1.5E1,1.2E1,4E0,7E0,9E0,1E2,7.4E1,1.5E1,3.1E1,1.1E1,1.7E1,3.3E1,2.9E1,5.9E1,3.9E1,2.1E1,7E0,7E0,3.1E1,3.7E1,1.1E1,2.6E1,3.4E1,1.3E1,1.7E1,8E0,1.7E1,5E0,6E0,5E0,4E0,5E0,6E0,2.43E2,8.4E1,8E0,5.7E1,3.4E1,6E1,1.55E2,2.5E1,3E1,2.4E1,3.7E1,1.1E1,1.9E1,1.3E1,1.76E2,5.7E1,4.2E1,4.5E1,2.05E2,1.15E2,1.31E2,6.2E1,2.14E2,7.9E1,1.15E2,3.2E1,1.09E2,5.6E1,8.8E1,4E0,2.3E1,1.5E1,7.4E1,3.6E1,2.5E1,4.2E1,1.97E2,5.1E1,1.21E2,4E1,1.8E1,1.3E1,4E0,1.2E1,5.2E1,1.8E1,3.5E1,1.4E1,3.2E1,1.27E2,2.8E1,1.44E2,1.21E2,1E1,5E0,1E1,3.8E1,6.2E1,1.9E1,5.5E1,6E0,9E0,1.8E1,1.3E1,7E0,1E1,1.5E1,1.8E1,1.6E1,1.3E1,4E0,5.5E1,6E0,3.3E1,5E0,3.2E1,5E0,6E0,2.2E1,4E0,4E0,3E1,9E0,4E0,1.4E1,3E0],"tree_param":{"num_deleted":"0","num_feature":"12","num_nodes":"245","size_leaf_vector":"1"}},{"base_weights":[-6.2999735E-4,4.245365E-1,-1.7438494E0,-3.217763E-3,6.297403E-1,4.482145E-2,-2.1133788E0,-2.927658E-1,1.4843922E0,2.54923E-1,1.3419344E0,-2.3661695E-1,1.7419025E0,-2.196045E0,-1.6850066E0,-4.8835647E-1,5.47864E-1,-8.244839E-1,1.9614521E0,-3.0085428E-2,8.221003E-1,8.7219334E-1,2.3299253E0,-5.477784E-1,4.182955E-1,5.286174E-1,2.7581751E0,-2.225464E0,-1.8572378E0,-2.189547E0,-2.9646847E-1,-8.6534876E-1,-3.579597E-1,-3.1412393E-1,1.2437049E0,-1.0024847E0,-4.6145228E-1,1.1927896E0,2.5767102E0,-3.309052E-1,2.2372119E-1,4.914615E-3,1.6159903E0,2.1483938E-1,1.0913191E0,1.7326587E0,1.7373824E-1,-2.6639506E-2,-7.1519506E-1,-1.7030674E-1,1.0350055E0,-2.986653E-2,1.0387297E0,1.5629134E-1,6.988532E-2,-2.082189E0,-1.1524115E-1,-1.151969E-1,-3.553353E-1,-1.1458842E-1,-8.649396E-2,-7.0088005E-1,8.5666865E-2,1.5120217E0,-9.648989E-1,-9.2403746E-1,-1.7255959E-1,-6.887564E-1,1.5102045E-1,7.6884335E-1,1.5486901E0,-6.2009532E-2,-3.3809684E-2,-2.9385287E-2,-1.3086781E-2,8.431979E-1,1.4522138E0,1.4993997E0,3.1928742E0,-4.0794668E-1,2.4566828E-1,1.11828536E-1,6.3751334E-1,-3.7937927E-1,4.3424964E-1,1.2166828E0,2.1683283E0,2.8021334E-2,8.748539E-1,9.134457E-1,1.6882741E0,1.4002244E0,2.2058048E0,-5.123486E-1,2.5596258E-1,-1.1699483E0,-5.129567E-1,2.9742291E-2,-2.5018176E-2,7.05152E-1,1.0359837E-1,2.6432415E-2,5.9090734E-2,-2.169763E0,-1.5755304E0,-9.9249184E-1,8.243117E-2,-1.0910044E0,-1.6264291E-1,-7.194817E-2,1.950943E-2,1.7274827E-2,9.531408E-2,-1.1179953E0,-3.9064094E-1,-1.1845092E0,-4.8431954E-1,-3.7178892E-1,1.1857367E-1,-9.040228E-1,-4.2747086E-1,7.429254E-2,3.3753365E-1,2.9692123E-2,8.6221236E-1,1.3494207E0,2.160095E0,6.509081E-1,6.11041E-2,5.5458542E-2,8.334032E-2,5.5322696E-2,8.821897E-2,2.7031267E0,1.8526407E-1,-5.7584345E-1,-2.2077042E-1,-2.3816882E-1,1.4028303E-1,-6.8393864E-2,3.7309828E-1,1.1398719E-1,9.983134E-1,-5.1503134E-1,-1.4088118E-1,1.42709E-1,6.04345E-1,1.0519748E0,1.4789603E0,7.607417E-2,1.6054498E-1,-2.1022187E-1,3.1998616E-1,3.009901E-2,1.3117602E0,7.33746E-1,1.3302884E0,1.3990225E0,2.80089E0,5.2499253E-2,1.5567222E0,8.716959E-2,1.5670864E-1,-4.6011426E-2,-9.5386704E-4,-1.2376909E-1,6.9163877E-1,-8.1278786E-2,-4.1655593E-2,-5.733324E-1,7.3052645E-3,-9.027577E-3,